{"learner":{"attributes":{"best_iteration":"123","best_score":"0.5609084249876817","scikit_learn":"{\"_estimator_type\": \"classifier\"}"},"feature_names":["LIMIT_BAL","AGE","PAY_0","PAY_2","PAY_3","PAY_4","PAY_5","PAY_6","BILL_AMT1","BILL_AMT2","BILL_AMT3","BILL_AMT4","BILL_AMT5","BILL_AMT6","PAY_AMT1","PAY_AMT2","PAY_AMT3","PAY_AMT4","PAY_AMT5","PAY_AMT6","PAY_MEAN","PAY_MAX","DELINQ_COUNT","BILL_MEAN","PAY_AMT_MEAN","UTILIZATION","PAYMENT_RATIO","LIMIT_PER_AGE","SEX_MALE","EDUCATION_2","EDUCATION_3","EDUCATION_4","MARRIAGE_2","MARRIAGE_3"],"feature_types":["float","int","int","int","int","int","int","int","float","float","float","float","float","float","float","float","float","float","float","float","float","int","int","float","float","float","float","float","int","int","int","int","int","int"],"gradient_booster":{"model":{"cats":{"enc":[],"feature_segments":[],"sorted_idx":[]},"gbtree_model_param":{"num_parallel_tree":"1","num_trees":"174"},"iteration_indptr":[0,1,2,3,4,5,6,7,8,9,10,11,12,13,14,15,16,17,18,19,20,21,22,23,24,25,26,27,28,29,30,31,32,33,34,35,36,37,38,39,40,41,42,43,44,45,46,47,48,49,50,51,52,53,54,55,56,57,58,59,60,61,62,63,64,65,66,67,68,69,70,71,72,73,74,75,76,77,78,79,80,81,82,83,84,85,86,87,88,89,90,91,92,93,94,95,96,97,98,99,100,101,102,103,104,105,106,107,108,109,110,111,112,113,114,115,116,117,118,119,120,121,122,123,124,125,126,127,128,129,130,131,132,133,134,135,136,137,138,139,140,141,142,143,144,145,146,147,148,149,150,151,152,153,154,155,156,157,158,159,160,161,162,163,164,165,166,167,168,169,170,171,172,173,174],"tree_info":[0,0,0,0,0,0,0,0,0,0,0,0,0,0,0,0,0,0,0,0,0,0,0,0,0,0,0,0,0,0,0,0,0,0,0,0,0,0,0,0,0,0,0,0,0,0,0,0,0,0,0,0,0,0,0,0,0,0,0,0,0,0,0,0,0,0,0,0,0,0,0,0,0,0,0,0,0,0,0,0,0,0,0,0,0,0,0,0,0,0,0,0,0,0,0,0,0,0,0,0,0,0,0,0,0,0,0,0,0,0,0,0,0,0,0,0,0,0,0,0,0,0,0,0,0,0,0,0,0,0,0,0,0,0,0,0,0,0,0,0,0,0,0,0,0,0,0,0,0,0,0,0,0,0,0,0,0,0,0,0,0,0,0,0,0,0,0,0,0,0,0,0,0,0],"trees":[{"base_weights":[-7.517127E-3,-7.635821E-1,9.0789026E-1,-3.4904104E-1,-9.7027713E-1,4.6363857E-1,1.5546021E0,1.3267176E-1,-5.0235E-1,-1.1325012E0,-5.929489E-1,2.3092715E-1,9.814401E-1,4.8016387E-1,1.5824567E0,5.507608E-1,-5.6526642E-2,-3.6501855E-1,-8.488377E-1,-8.093731E-1,-1.3463653E0,-3.168711E-1,-7.093985E-1,5.082029E-1,-2.0220688E-2,8.5976607E-1,1.2792268E0,7.1776354E-1,-3.2390326E-2,1.5907664E0,-0E0,-2.0670596E-1,8.905886E-1,-4.3600643E-1,3.674984E-1,-1.9625697E-1,-5.383838E-1,-5.6660473E-1,-1.5811945E0,5.1701102E-2,-8.7190336E-1,-8.3908564E-1,-1.4360889E0,-8.111369E-2,-2.3138371E-1,-5.346406E-1,-9.877959E-1,7.740988E-1,3.909877E-1,-2.5032863E-1,4.313417E-1,9.84807E-1,4.2445278E-1,1.3324703E0,4.460491E-1,4.4919166E-1,8.3282754E-2,1.6089419E0,1.1067109E0,-3.038149E-2,4.537528E-3,3.562526E-2,8.067015E-2,-8.551724E-2,-1.7527984E-2,-4.1867167E-2,2.4934264E-2,1.1599003E-2,-1.6086597E-2,-4.457226E-2,-9.1223465E-3,-7.563674E-2,-2.3606488E-2,-3.4059998E-2,-8.580483E-2,1.2981194E-2,-6.192069E-2,-4.441164E-2,5.2349567E-2,-1.0577872E-2,-4.827557E-2,-4.4962477E-2,-7.439717E-2,8.142115E-3,-2.36491E-2,-3.214806E-2,1.1284634E-2,3.901657E-2,-5.2604556E-2,5.0741144E-2,3.1313207E-2,2.8466806E-2,8.460659E-4,-7.928408E-3,-4.887618E-2,3.6959045E-2,7.88548E-3,5.074164E-2,-3.2390326E-2,3.9107088E-2,-1.4063458E-4,2.2553442E-2,6.796424E-2,-2.3953618E-2,5.8109798E-2,1.3745459E-3,6.7766786E-2,8.327353E-2,7.393469E-2,1.6309518E-2,6.4680986E-2],"categories":[],"categories_nodes":[],"categories_segments":[],"categories_sizes":[],"default_left":[0,0,0,0,0,0,0,0,0,0,0,0,0,0,0,0,0,0,0,0,0,0,0,0,0,0,0,0,0,0,0,0,0,0,0,0,0,0,0,0,0,0,0,0,0,0,0,0,0,0,0,0,0,0,0,0,0,0,0,0,0,0,0,0,0,0,0,0,0,0,0,0,0,0,0,0,0,0,0,0,0,0,0,0,0,0,0,0,0,0,0,0,0,0,0,0,0,0,0,0,0,0,0,0,0,0,0,0,0,0,0],"id":0,"left_children":[1,3,5,7,9,11,13,15,17,19,21,23,25,27,29,31,33,35,37,39,41,43,45,47,49,51,53,55,-1,57,-1,59,61,63,65,67,69,71,73,75,77,79,81,-1,83,85,87,89,91,93,95,97,99,101,103,105,-1,107,109,-1,-1,-1,-1,-1,-1,-1,-1,-1,-1,-1,-1,-1,-1,-1,-1,-1,-1,-1,-1,-1,-1,-1,-1,-1,-1,-1,-1,-1,-1,-1,-1,-1,-1,-1,-1,-1,-1,-1,-1,-1,-1,-1,-1,-1,-1,-1,-1,-1,-1,-1,-1],"loss_changes":[5.1658076E3,3.4978442E2,9.690481E2,1.0067299E2,1.6607935E2,2.409921E2,4.016333E1,2.613677E1,4.874118E1,1.3039575E2,2.6105347E1,9.6385925E1,2.1171753E1,1.0188213E1,1.754248E1,2.6735043E1,3.6777004E1,2.1530556E1,5.9319702E1,4.1139435E1,5.068628E1,2.688933E1,2.7402283E1,2.0078247E1,7.558989E1,2.3601044E1,7.1119995E0,6.8032856E0,0E0,9.666504E0,0E0,3.9925356E0,7.7955513E0,1.233149E1,1.7433771E1,2.0387718E1,4.5617928E1,1.809903E1,8.385681E0,1.42809E1,2.3170837E1,1.3535507E1,2.546521E1,0E0,2.2214062E1,2.959037E1,2.5994598E1,6.3154907E0,3.053543E1,3.1901323E1,2.0473042E1,1.7551056E1,1.5512836E1,3.1393738E0,8.768321E0,9.458759E0,0E0,6.6574707E0,6.944805E0,0E0,0E0,0E0,0E0,0E0,0E0,0E0,0E0,0E0,0E0,0E0,0E0,0E0,0E0,0E0,0E0,0E0,0E0,0E0,0E0,0E0,0E0,0E0,0E0,0E0,0E0,0E0,0E0,0E0,0E0,0E0,0E0,0E0,0E0,0E0,0E0,0E0,0E0,0E0,0E0,0E0,0E0,0E0,0E0,0E0,0E0,0E0,0E0,0E0,0E0,0E0,0E0],"parents":[2147483647,0,0,1,1,2,2,3,3,4,4,5,5,6,6,7,7,8,8,9,9,10,10,11,11,12,12,13,13,14,14,15,15,16,16,17,17,18,18,19,19,20,20,21,21,22,22,23,23,24,24,25,25,26,26,27,27,29,29,31,31,32,32,33,33,34,34,35,35,36,36,37,37,38,38,39,39,40,40,41,41,42,42,44,44,45,45,46,46,47,47,48,48,49,49,50,50,51,51,52,52,53,53,54,54,55,55,57,57,58,58],"right_children":[2,4,6,8,10,12,14,16,18,20,22,24,26,28,30,32,34,36,38,40,42,44,46,48,50,52,54,56,-1,58,-1,60,62,64,66,68,70,72,74,76,78,80,82,-1,84,86,88,90,92,94,96,98,100,102,104,106,-1,108,110,-1,-1,-1,-1,-1,-1,-1,-1,-1,-1,-1,-1,-1,-1,-1,-1,-1,-1,-1,-1,-1,-1,-1,-1,-1,-1,-1,-1,-1,-1,-1,-1,-1,-1,-1,-1,-1,-1,-1,-1,-1,-1,-1,-1,-1,-1,-1,-1,-1,-1,-1,-1],"split_conditions":[1E0,1.606E3,2E0,4.94E2,7.9938334E-1,3E0,5.882353E-3,5.3833332E1,4.4117646E3,1.28975E4,7E4,1.3333334E3,1.8333334E0,1.34E3,1E0,1.9E5,1.5217392E-3,1.368E3,5.0883334E-2,9.8039215E2,1E5,0E0,4.3088235E-2,5.3833332E1,2E0,3.611111E3,7.169E3,3.3E5,-3.2390326E-2,1.0055E4,-0E0,3.2142856E3,3.7E5,0E0,1.0416666E3,6.818182E2,2.6349334E4,3.5116666E2,-1.3333334E0,1.1033E4,3.8955E4,5E4,3.1280205E-2,-8.111369E-2,1.128E3,1.4270333E4,1.509434E3,4E3,1.5E5,9E3,1.985E3,6.1253335E3,4.1252423E-2,3.65E2,6.622E3,1E3,8.3282754E-2,8.882E-1,5.0570832E4,-3.038149E-2,4.537528E-3,3.562526E-2,8.067015E-2,-8.551724E-2,-1.7527984E-2,-4.1867167E-2,2.4934264E-2,1.1599003E-2,-1.6086597E-2,-4.457226E-2,-9.1223465E-3,-7.563674E-2,-2.3606488E-2,-3.4059998E-2,-8.580483E-2,1.2981194E-2,-6.192069E-2,-4.441164E-2,5.2349567E-2,-1.0577872E-2,-4.827557E-2,-4.4962477E-2,-7.439717E-2,8.142115E-3,-2.36491E-2,-3.214806E-2,1.1284634E-2,3.901657E-2,-5.2604556E-2,5.0741144E-2,3.1313207E-2,2.8466806E-2,8.460659E-4,-7.928408E-3,-4.887618E-2,3.6959045E-2,7.88548E-3,5.074164E-2,-3.2390326E-2,3.9107088E-2,-1.4063458E-4,2.2553442E-2,6.796424E-2,-2.3953618E-2,5.8109798E-2,1.3745459E-3,6.7766786E-2,8.327353E-2,7.393469E-2,1.6309518E-2,6.4680986E-2],"split_indices":[21,24,2,8,25,22,25,24,27,23,0,24,20,15,31,0,25,15,25,27,0,4,26,24,22,27,15,0,0,18,0,27,0,12,27,27,23,23,20,12,12,0,26,0,18,24,27,27,0,27,17,24,26,24,17,10,0,25,23,0,0,0,0,0,0,0,0,0,0,0,0,0,0,0,0,0,0,0,0,0,0,0,0,0,0,0,0,0,0,0,0,0,0,0,0,0,0,0,0,0,0,0,0,0,0,0,0,0,0,0,0],"split_type":[0,0,0,0,0,0,0,0,0,0,0,0,0,0,0,0,0,0,0,0,0,0,0,0,0,0,0,0,0,0,0,0,0,0,0,0,0,0,0,0,0,0,0,0,0,0,0,0,0,0,0,0,0,0,0,0,0,0,0,0,0,0,0,0,0,0,0,0,0,0,0,0,0,0,0,0,0,0,0,0,0,0,0,0,0,0,0,0,0,0,0,0,0,0,0,0,0,0,0,0,0,0,0,0,0,0,0,0,0,0,0],"sum_hessian":[7.4619004E3,4.0867744E3,3.375126E3,1.3607898E3,2.7259846E3,2.001849E3,1.3732769E3,3.2840112E2,1.0323887E3,1.9047933E3,8.211913E2,1.382267E3,6.195821E2,3.525391E1,1.338023E3,1.0188157E2,2.2651955E2,7.410238E2,2.9136484E2,7.607002E2,1.1440931E3,2.4497829E2,5.76213E2,6.5666315E2,7.2560376E2,4.428563E2,1.767258E2,2.9493595E1,5.7603126E0,1.3310023E3,7.020625E0,3.15825E1,7.0299065E1,1.19648285E2,1.06871254E2,3.7687018E2,3.641536E2,2.1169345E2,7.967141E1,5.140469E1,7.092955E2,1.7366891E2,9.7042426E2,1.38801565E1,2.3109813E2,3.5601315E2,2.2019984E2,1.9893454E2,4.577286E2,4.8110736E2,2.4449641E2,3.428755E2,9.998079E1,1.6543454E2,1.129125E1,2.4212658E1,5.280938E0,1.2803953E3,5.0607037E1,1.3150782E1,1.8431719E1,5.8107037E1,1.2192033E1,6.25E0,1.13398285E2,9.890469E0,9.698079E1,8.502844E1,2.9184174E2,1.8191891E2,1.822347E2,1.7760313E1,1.9393314E2,1.1270625E1,6.840078E1,4.5024532E1,6.3801565E0,7.038947E2,5.4007816E0,2.9702345E1,1.4396657E2,8.726422E1,8.8316003E2,8.777844E1,1.4331969E2,3.1186877E2,4.414438E1,7.280938E0,2.1291891E2,7.319985E1,1.25734695E2,3.0941534E2,1.483133E2,4.2840503E2,5.2702347E1,1.14083916E2,1.304125E2,3.3711517E2,5.7603126E0,5.409672E1,4.5884064E1,5.520625E0,1.5991393E2,5.0103126E0,6.280938E0,1.7301563E1,6.911094E0,8.8412396E2,3.9627127E2,1.0411095E1,4.0195942E1],"tree_param":{"num_deleted":"0","num_feature":"34","num_nodes":"111","size_leaf_vector":"1"}},{"base_weights":[-3.6723588E-3,-5.428798E-1,1.0350051E0,2.0133287E-1,-7.4861586E-1,6.943416E-1,1.3544153E0,5.761052E-1,3.9153315E-2,-5.345009E-1,-9.5050114E-1,7.747504E-1,2.3956001E-1,1.2332412E0,1.5457006E0,4.8740166E-1,1.5188309E0,-4.4426784E-1,2.3857269E-1,-4.7066984E-1,-1.066282E0,-1.1103206E0,-5.489749E-1,6.335621E-1,1.0500599E0,-7.580452E-2,9.763455E-1,1.4522576E0,1.1189626E0,1.5944976E0,1.1102628E0,3.0731416E-1,6.92961E-1,3.991065E-2,8.378839E-2,1.039214E0,-5.5647457E-1,3.9220986E-1,-2.3247512E-1,-2.278381E-1,-5.7669365E-1,-1.1826122E0,-1.8899697E-1,-7.8506213E-1,-1.2780907E0,-5.974084E-1,4.4914126E-1,7.249825E-1,1.0225893E-1,1.1595126E0,7.812108E-1,2.1231659E-1,-7.028709E-1,1.2762356E0,5.746195E-1,1.3762537E0,9.0036795E-2,1.2039288E0,7.65794E-1,1.6101241E0,1.5261988E-2,1.7474359E-2,1.2405643E0,-1.1479094E-3,2.3978394E-2,-8.239623E-3,3.866863E-2,7.815278E-2,1.0185225E-2,-3.3440493E-2,-1.6718913E-3,9.059373E-3,3.206318E-2,7.073553E-2,-1.8065853E-2,-3.4792136E-2,-1.9120788E-3,-1.6075416E-2,-4.333916E-2,-2.3339119E-2,-6.722553E-2,-6.0837448E-2,1.1368838E-2,-2.39927E-2,-5.0744917E-2,-7.101212E-2,-5.1551647E-2,-3.7455093E-2,-2.0243978E-2,5.7252277E-2,-4.926936E-2,3.968804E-2,-3.5472566E-3,2.218509E-2,-1.4895046E-2,-2.9630328E-3,5.9344232E-2,5.590486E-2,2.1975657E-2,2.0786606E-2,-4.457129E-2,3.0928973E-2,-4.7959425E-2,7.1847476E-2,3.3134975E-2,-2.142811E-2,4.7981814E-2,7.03763E-2,1.6738122E-2,5.0997585E-2,6.367473E-2,7.153706E-3,5.228867E-2,8.276453E-2,6.773252E-2,6.719553E-2,1.9384114E-2],"categories":[],"categories_nodes":[],"categories_segments":[],"categories_sizes":[],"default_left":[0,0,0,0,0,0,0,0,0,0,0,0,0,0,0,0,0,0,0,0,0,0,0,0,0,0,0,0,0,0,0,0,0,0,0,0,0,0,0,0,0,0,0,0,0,0,0,0,0,0,0,0,0,0,0,0,0,0,0,0,0,0,0,0,0,0,0,0,0,0,0,0,0,0,0,0,0,0,0,0,0,0,0,0,0,0,0,0,0,0,0,0,0,0,0,0,0,0,0,0,0,0,0,0,0,0,0,0,0,0,0,0,0,0,0,0,0],"id":1,"left_children":[1,3,5,7,9,11,13,15,17,19,21,23,25,27,29,31,33,35,37,39,41,43,45,47,49,51,53,55,57,59,61,63,65,-1,-1,67,69,71,73,75,77,79,81,83,85,87,89,91,93,95,97,99,101,103,105,107,-1,109,111,113,-1,-1,115,-1,-1,-1,-1,-1,-1,-1,-1,-1,-1,-1,-1,-1,-1,-1,-1,-1,-1,-1,-1,-1,-1,-1,-1,-1,-1,-1,-1,-1,-1,-1,-1,-1,-1,-1,-1,-1,-1,-1,-1,-1,-1,-1,-1,-1,-1,-1,-1,-1,-1,-1,-1,-1,-1],"loss_changes":[4.208061E3,7.5750635E2,2.7823486E2,6.5065506E1,1.6685547E2,4.5227783E1,2.8502686E1,2.6110329E1,7.2329704E1,6.3266663E1,1.2712085E2,4.025299E1,4.3994434E1,1.8535278E1,8.77771E0,1.0690407E1,1.4968185E0,3.6993847E1,3.856015E1,4.3126404E1,2.0137802E1,7.652051E1,2.7818344E1,3.3914337E1,9.392181E0,2.4214418E1,5.9132843E0,4.51532E0,1.5106384E1,8.490723E0,4.840523E0,9.187168E0,9.689178E0,0E0,0E0,6.3720417E0,1.1915207E1,2.0886425E1,2.8238539E1,4.5466316E1,8.6270996E1,1.9710068E1,1.0991155E1,3.3561493E1,3.1230469E1,1.54618225E1,2.7933903E1,3.2873047E1,1.4398004E1,8.558685E0,1.1611252E1,2.0919813E1,1.4917515E1,1.944519E0,1.0583803E1,6.8813477E0,0E0,4.024719E0,1.8532299E1,2.644287E0,0E0,0E0,3.3858185E0,0E0,0E0,0E0,0E0,0E0,0E0,0E0,0E0,0E0,0E0,0E0,0E0,0E0,0E0,0E0,0E0,0E0,0E0,0E0,0E0,0E0,0E0,0E0,0E0,0E0,0E0,0E0,0E0,0E0,0E0,0E0,0E0,0E0,0E0,0E0,0E0,0E0,0E0,0E0,0E0,0E0,0E0,0E0,0E0,0E0,0E0,0E0,0E0,0E0,0E0,0E0,0E0,0E0,0E0],"parents":[2147483647,0,0,1,1,2,2,3,3,4,4,5,5,6,6,7,7,8,8,9,9,10,10,11,11,12,12,13,13,14,14,15,15,16,16,17,17,18,18,19,19,20,20,21,21,22,22,23,23,24,24,25,25,26,26,27,27,28,28,29,29,30,30,31,31,32,32,35,35,36,36,37,37,38,38,39,39,40,40,41,41,42,42,43,43,44,44,45,45,46,46,47,47,48,48,49,49,50,50,51,51,52,52,53,53,54,54,55,55,57,57,58,58,59,59,62,62],"right_children":[2,4,6,8,10,12,14,16,18,20,22,24,26,28,30,32,34,36,38,40,42,44,46,48,50,52,54,56,58,60,62,64,66,-1,-1,68,70,72,74,76,78,80,82,84,86,88,90,92,94,96,98,100,102,104,106,108,-1,110,112,114,-1,-1,116,-1,-1,-1,-1,-1,-1,-1,-1,-1,-1,-1,-1,-1,-1,-1,-1,-1,-1,-1,-1,-1,-1,-1,-1,-1,-1,-1,-1,-1,-1,-1,-1,-1,-1,-1,-1,-1,-1,-1,-1,-1,-1,-1,-1,-1,-1,-1,-1,-1,-1,-1,-1,-1,-1],"split_conditions":[1.6666667E-1,7.528333E2,1E0,5.7E1,3E3,5.75E3,2E0,5.4E1,-1.1666666E0,4.4393E4,8.5265E-1,6.666667E-1,7.8393E-1,2E0,4E0,3.6E1,-1.8333334E0,3E4,8.011E3,2.427E3,9.9241E-1,1.28975E4,2.0005E4,2E0,2E0,7.156403E-2,3.4E1,1.00244E5,4.015E3,2.23068E5,1E2,-1.5E0,0E0,3.991065E-2,8.378839E-2,5.714286E2,3.1E5,-6.666667E-1,5.3833332E1,-1E0,7E4,1.07E3,2.1E3,1.272E3,5.1805E-1,9.827206E-1,8.536E3,2E0,1E0,2E4,1.9082E4,2E0,1.8E5,1.94817E5,2.45741E5,9.8098E4,9.0036795E-2,2E0,1.3333334E0,4.528E3,1.5261988E-2,1.7474359E-2,1.45000415E-2,-1.1479094E-3,2.3978394E-2,-8.239623E-3,3.866863E-2,7.815278E-2,1.0185225E-2,-3.3440493E-2,-1.6718913E-3,9.059373E-3,3.206318E-2,7.073553E-2,-1.8065853E-2,-3.4792136E-2,-1.9120788E-3,-1.6075416E-2,-4.333916E-2,-2.3339119E-2,-6.722553E-2,-6.0837448E-2,1.1368838E-2,-2.39927E-2,-5.0744917E-2,-7.101212E-2,-5.1551647E-2,-3.7455093E-2,-2.0243978E-2,5.7252277E-2,-4.926936E-2,3.968804E-2,-3.5472566E-3,2.218509E-2,-1.4895046E-2,-2.9630328E-3,5.9344232E-2,5.590486E-2,2.1975657E-2,2.0786606E-2,-4.457129E-2,3.0928973E-2,-4.7959425E-2,7.1847476E-2,3.3134975E-2,-2.142811E-2,4.7981814E-2,7.03763E-2,1.6738122E-2,5.0997585E-2,6.367473E-2,7.153706E-3,5.228867E-2,8.276453E-2,6.773252E-2,6.719553E-2,1.9384114E-2],"split_indices":[20,24,20,23,14,27,20,1,20,12,25,20,25,5,3,1,20,0,8,8,25,23,17,7,7,26,1,12,15,10,24,20,23,0,0,27,0,20,24,20,0,14,17,17,25,25,14,6,32,0,8,7,0,12,10,9,0,3,20,14,0,0,26,0,0,0,0,0,0,0,0,0,0,0,0,0,0,0,0,0,0,0,0,0,0,0,0,0,0,0,0,0,0,0,0,0,0,0,0,0,0,0,0,0,0,0,0,0,0,0,0,0,0,0,0,0,0],"split_type":[0,0,0,0,0,0,0,0,0,0,0,0,0,0,0,0,0,0,0,0,0,0,0,0,0,0,0,0,0,0,0,0,0,0,0,0,0,0,0,0,0,0,0,0,0,0,0,0,0,0,0,0,0,0,0,0,0,0,0,0,0,0,0,0,0,0,0,0,0,0,0,0,0,0,0,0,0,0,0,0,0,0,0,0,0,0,0,0,0,0,0,0,0,0,0,0,0,0,0,0,0,0,0,0,0,0,0,0,0,0,0,0,0,0,0,0,0],"sum_hessian":[7.511639E3,4.945079E3,2.56656E3,1.0708846E3,3.8741946E3,1.243648E3,1.322912E3,3.224901E2,7.4839453E2,1.8821603E3,1.9920344E3,1.0560134E3,1.8763455E2,8.14756E2,5.0815604E2,2.962393E2,2.6250832E1,2.1805899E2,5.303356E2,1.6823024E3,1.9985793E2,1.423446E3,5.685883E2,7.004583E2,3.5555502E2,1.3192738E2,5.5707172E1,2.7504517E2,5.397108E2,4.5434842E2,5.3807613E1,1.594921E2,1.367472E2,5.8969226E0,2.0353909E1,1.4690006E1,2.0336897E2,4.0018927E2,1.3014627E2,5.1252734E2,1.169775E3,1.760511E2,2.3806824E1,4.8651257E2,9.3693353E2,5.427529E2,2.5835396E1,5.971543E2,1.03304054E2,2.5006487E2,1.0549017E2,9.073766E1,4.1189716E1,3.0507439E1,2.5199734E1,2.3009682E2,4.494836E1,4.328763E2,1.06834526E2,4.4858487E2,5.7635407E0,8.518911E0,4.5288704E1,5.4768112E1,1.0472399E2,1.152427E1,1.25222916E2,8.420263E0,6.269743E0,1.6702605E2,3.6342937E1,2.1778757E2,1.824017E2,8.661141E0,1.2148513E2,1.4684761E2,3.6567972E2,6.236324E2,5.4614264E2,3.3303097E1,1.42748E2,6.3790574E0,1.7427767E1,2.1050198E2,2.760106E2,5.914645E2,3.4546906E2,3.0166266E2,2.4109027E2,1.7579102E1,8.256294E0,5.4977515E2,4.737916E1,5.5817745E1,4.748631E1,5.3869247E0,2.4467793E2,5.1827538E1,5.3662636E1,7.7220215E1,1.3517448E1,6.3985224E0,3.479119E1,2.2982243E1,7.525196E0,6.885741E0,1.8313993E1,2.229548E2,7.1420126E0,1.2346188E2,3.0941443E2,3.371502E1,7.3119514E1,3.7620334E2,7.2381546E1,3.9775963E1,5.5127406E0],"tree_param":{"num_deleted":"0","num_feature":"34","num_nodes":"117","size_leaf_vector":"1"}},{"base_weights":[-2.6114779E-3,-6.8192226E-1,8.184991E-1,-2.2241794E-1,-8.194773E-1,3.9646226E-1,1.4340117E0,2.9541332E-1,-2.947496E-1,-9.579081E-1,-4.740978E-1,1.9077425E-1,9.065205E-1,6.174728E-1,1.4606029E0,9.856387E-3,1.0187947E0,-1.229184E-1,-5.854092E-1,-6.2285286E-1,-1.1533422E0,-3.320464E-1,-6.867539E-1,4.7911134E-1,-7.958158E-2,1.0015563E0,5.5444306E-1,8.942094E-1,-7.809623E-2,1.4678577E0,1.616017E-2,-7.3377126E-1,1.7904371E-1,7.633794E-1,7.8944795E-2,1.1793875E-1,-3.0287227E-1,-4.3041855E-1,-1.1552612E0,-8.757622E-2,-6.912645E-1,-5.415281E-1,-1.210281E0,-1.3389778E0,-2.8943825E-1,-9.027062E-1,-4.145034E-1,6.266585E-1,2.8089312E-1,-2.1313733E-1,3.840276E-1,4.8689198E-1,1.0567149E0,-2.3719676E-1,8.177825E-1,7.71639E-2,6.0942805E-1,-5.493287E-2,3.2662507E-2,1.4782207E0,8.024258E-1,-5.3561952E-2,-4.967009E-3,-5.268981E-2,1.4772904E-2,5.410275E-2,-6.100365E-4,-6.428553E-2,1.0306334E-2,6.289472E-3,-2.097894E-2,-1.4196219E-2,-5.81641E-2,-6.4424733E-3,-6.2699564E-2,-1.8758368E-2,2.6514376E-2,-2.3984313E-2,-5.1356263E-2,-3.6760863E-2,2.197059E-3,-3.402413E-2,-6.2989354E-2,-3.2427844E-2,-8.807631E-2,-2.0453757E-2,1.5740264E-3,2.0437036E-2,-4.9303055E-2,-1.4982893E-2,-6.974831E-2,3.4873333E-2,5.0511365E-3,2.1787217E-2,-2.1717709E-2,-7.741753E-3,-5.269268E-2,-3.49607E-2,2.3618475E-2,4.6362333E-2,-8.034013E-3,7.3186904E-2,5.0347883E-2,1.1775623E-2,-5.158052E-2,2.8373087E-2,5.8027994E-2,-7.076827E-3,4.7128454E-2,7.812774E-2,7.033638E-2,8.029751E-3,6.1523654E-2],"categories":[],"categories_nodes":[],"categories_segments":[],"categories_sizes":[],"default_left":[0,0,0,0,0,0,0,0,0,0,0,0,0,0,0,0,0,0,0,0,0,0,0,0,0,0,0,0,0,0,0,0,0,0,0,0,0,0,0,0,0,0,0,0,0,0,0,0,0,0,0,0,0,0,0,0,0,0,0,0,0,0,0,0,0,0,0,0,0,0,0,0,0,0,0,0,0,0,0,0,0,0,0,0,0,0,0,0,0,0,0,0,0,0,0,0,0,0,0,0,0,0,0,0,0,0,0,0,0,0,0,0,0],"id":2,"left_children":[1,3,5,7,9,11,13,15,17,19,21,23,25,27,29,31,33,35,37,39,41,43,45,47,49,51,53,55,57,59,-1,61,63,65,-1,67,69,71,73,75,77,79,81,83,85,87,89,91,93,95,97,99,101,103,105,-1,107,-1,-1,109,111,-1,-1,-1,-1,-1,-1,-1,-1,-1,-1,-1,-1,-1,-1,-1,-1,-1,-1,-1,-1,-1,-1,-1,-1,-1,-1,-1,-1,-1,-1,-1,-1,-1,-1,-1,-1,-1,-1,-1,-1,-1,-1,-1,-1,-1,-1,-1,-1,-1,-1,-1,-1],"loss_changes":[4.1520557E3,2.5720093E2,8.746931E2,3.529792E1,1.4927295E2,2.096207E2,2.8644287E1,2.3755274E1,4.10875E1,1.4555615E2,2.6829819E1,1.1133208E2,1.8513733E1,8.826906E0,1.0290527E1,1.0638238E1,3.2233315E0,2.2605473E1,2.6390808E1,3.0120483E1,4.8331055E1,2.2670864E1,2.059166E1,1.9940994E1,4.5712708E1,1.2133331E1,2.6224957E1,4.8377857E0,1.0946311E1,7.6708984E0,0E0,3.1265535E0,1.0182339E1,6.1618547E0,0E0,2.7758509E1,1.5006222E1,2.555774E1,6.261566E0,1.705546E1,5.1398987E1,1.394907E1,3.2786133E1,4.918579E0,2.0040031E1,2.2220978E1,1.7517254E1,1.4551285E1,3.3078266E1,2.7809978E1,1.6104275E1,1.3252848E1,6.507263E0,1.2256644E1,7.217827E0,0E0,6.291996E0,0E0,0E0,5.3186035E0,5.855377E0,0E0,0E0,0E0,0E0,0E0,0E0,0E0,0E0,0E0,0E0,0E0,0E0,0E0,0E0,0E0,0E0,0E0,0E0,0E0,0E0,0E0,0E0,0E0,0E0,0E0,0E0,0E0,0E0,0E0,0E0,0E0,0E0,0E0,0E0,0E0,0E0,0E0,0E0,0E0,0E0,0E0,0E0,0E0,0E0,0E0,0E0,0E0,0E0,0E0,0E0,0E0,0E0],"parents":[2147483647,0,0,1,1,2,2,3,3,4,4,5,5,6,6,7,7,8,8,9,9,10,10,11,11,12,12,13,13,14,14,15,15,16,16,17,17,18,18,19,19,20,20,21,21,22,22,23,23,24,24,25,25,26,26,27,27,28,28,29,29,31,31,32,32,33,33,35,35,36,36,37,37,38,38,39,39,40,40,41,41,42,42,43,43,44,44,45,45,46,46,47,47,48,48,49,49,50,50,51,51,52,52,53,53,54,54,56,56,59,59,60,60],"right_children":[2,4,6,8,10,12,14,16,18,20,22,24,26,28,30,32,34,36,38,40,42,44,46,48,50,52,54,56,58,60,-1,62,64,66,-1,68,70,72,74,76,78,80,82,84,86,88,90,92,94,96,98,100,102,104,106,-1,108,-1,-1,110,112,-1,-1,-1,-1,-1,-1,-1,-1,-1,-1,-1,-1,-1,-1,-1,-1,-1,-1,-1,-1,-1,-1,-1,-1,-1,-1,-1,-1,-1,-1,-1,-1,-1,-1,-1,-1,-1,-1,-1,-1,-1,-1,-1,-1,-1,-1,-1,-1,-1,-1,-1,-1],"split_conditions":[1E0,1.1575E3,2E0,5.7E1,8.466333E-1,8.333333E-1,9.16E2,3.2E5,4.2857144E3,1.0872833E4,6.5835E4,1.3333334E3,2.6378333E3,8.815E2,1E0,1.2E5,4.6E5,7.065E3,8E2,1.3888889E3,1.6E3,0E0,8E3,4E3,2E0,1.22575E-1,6.7743E4,7.894737E2,1.128E3,1.664E4,1.616017E-2,5.3833332E1,-2E1,1.1111111E4,7.8944795E-2,1.95E2,6.060606E2,6.808E3,1.5E5,7.847E3,2.08E-2,2.025E3,1.5E3,1.4958E4,1.0051609E0,0E0,1.5454E4,2.4022E4,7.335E2,1.3004E4,-3.3333334E-1,5.3432E-2,8.095E3,2.525E3,6.1E3,7.71639E-2,2.3255813E3,-5.493287E-2,3.2662507E-2,6.3984E-1,3.003E3,-5.3561952E-2,-4.967009E-3,-5.268981E-2,1.4772904E-2,5.410275E-2,-6.100365E-4,-6.428553E-2,1.0306334E-2,6.289472E-3,-2.097894E-2,-1.4196219E-2,-5.81641E-2,-6.4424733E-3,-6.2699564E-2,-1.8758368E-2,2.6514376E-2,-2.3984313E-2,-5.1356263E-2,-3.6760863E-2,2.197059E-3,-3.402413E-2,-6.2989354E-2,-3.2427844E-2,-8.807631E-2,-2.0453757E-2,1.5740264E-3,2.0437036E-2,-4.9303055E-2,-1.4982893E-2,-6.974831E-2,3.4873333E-2,5.0511365E-3,2.1787217E-2,-2.1717709E-2,-7.741753E-3,-5.269268E-2,-3.49607E-2,2.3618475E-2,4.6362333E-2,-8.034013E-3,7.3186904E-2,5.0347883E-2,1.1775623E-2,-5.158052E-2,2.8373087E-2,5.8027994E-2,-7.076827E-3,4.7128454E-2,7.812774E-2,7.033638E-2,8.029751E-3,6.1523654E-2],"split_indices":[21,24,2,23,25,20,8,0,27,23,12,24,24,23,31,0,0,8,16,27,27,4,14,27,3,25,13,27,18,18,0,24,12,27,0,23,27,8,0,13,25,17,14,9,25,20,16,8,24,19,20,25,9,19,16,0,27,0,0,25,19,0,0,0,0,0,0,0,0,0,0,0,0,0,0,0,0,0,0,0,0,0,0,0,0,0,0,0,0,0,0,0,0,0,0,0,0,0,0,0,0,0,0,0,0,0,0,0,0,0,0,0,0],"split_type":[0,0,0,0,0,0,0,0,0,0,0,0,0,0,0,0,0,0,0,0,0,0,0,0,0,0,0,0,0,0,0,0,0,0,0,0,0,0,0,0,0,0,0,0,0,0,0,0,0,0,0,0,0,0,0,0,0,0,0,0,0,0,0,0,0,0,0,0,0,0,0,0,0,0,0,0,0,0,0,0,0,0,0,0,0,0,0,0,0,0,0,0,0,0,0,0,0,0,0,0,0,0,0,0,0,0,0,0,0,0,0,0,0],"sum_hessian":[7.441795E3,4.0727063E3,3.3690886E3,9.3907104E2,3.1336353E3,1.9997395E3,1.369349E3,1.1454716E2,8.245239E2,2.2355474E3,8.980879E2,1.426182E3,5.735575E2,4.4069817E1,1.3252792E3,8.295306E1,3.15941E1,5.192955E2,3.0522842E2,8.2531433E2,1.4102329E3,5.4024396E2,3.5784396E2,6.8994586E2,7.362362E2,4.4996918E2,1.235883E2,3.1425262E1,1.2644554E1,1.3165034E3,8.775777E0,1.4647023E1,6.830603E1,2.3444502E1,8.1496E0,2.219791E2,2.973164E2,2.4148038E2,6.374803E1,9.39509E1,7.3136346E2,1.2111426E2,1.2891187E3,2.0601826E1,5.1964215E2,1.9805858E2,1.5978539E2,3.9399957E2,2.959463E2,5.721641E2,1.640721E2,4.468359E1,4.0528558E2,3.0779581E1,9.280872E1,8.128534E0,2.3296726E1,5.1259775E0,7.5185766E0,1.294965E3,2.1538504E1,9.008879E0,5.638144E0,5.1246247E0,6.3181408E1,1.6428165E1,7.016335E0,1.2252244E1,2.0972685E2,6.342446E1,2.3389194E2,2.0252162E2,3.895876E1,5.884978E0,5.7863052E1,6.448864E1,2.9462263E1,4.5037317E2,2.8099026E2,9.094291E1,3.0171345E1,1.1159783E2,1.1775209E3,8.873895E0,1.172793E1,3.7855545E2,1.4108667E2,1.1531218E1,1.8652736E2,1.4429155E2,1.5493826E1,3.4676932E2,4.7230263E1,2.4371295E2,5.223333E1,5.362773E2,3.5886814E1,1.1764904E1,1.523072E2,2.6432087E1,1.8251503E1,4.0833466E1,3.6445212E2,1.9659199E1,1.1120382E1,5.5341545E1,3.7467175E1,7.243483E0,1.6053244E1,5.839156E2,7.110494E2,9.260999E0,1.2277506E1],"tree_param":{"num_deleted":"0","num_feature":"34","num_nodes":"113","size_leaf_vector":"1"}},{"base_weights":[1.0546022E-3,-6.4903915E-1,7.900109E-1,-3.248437E-1,-8.378729E-1,3.9594167E-1,1.3776451E0,3.1993115E-1,-3.8257083E-1,-5.873784E-1,-9.73829E-1,1.23136744E-1,7.499271E-1,6.80729E-1,1.4084033E0,1.9715259E-2,7.6287556E-1,-2.2674069E-1,-7.6288736E-1,-7.3671466E-1,-4.1894493E-1,-1.0478704E0,-5.4724675E-1,4.3594915E-1,-2.1526705E-1,8.1871367E-1,3.035599E-1,2.1464233E-1,1.2633672E0,1.4158936E0,7.411253E-1,5.9864737E-2,-8.238665E-2,1.0190924E0,-1.258919E-1,-6.405751E-1,-1.3971105E-1,-6.32523E-1,-1.402581E0,-5.1751316E-1,-1.0115961E0,-6.591229E-1,-2.2533728E-1,-5.3870195E-1,-1.1213449E0,-4.0016428E-1,-1.0620577E0,5.821906E-1,1.3376397E-1,-1.3461816E-1,-8.543315E-1,5.8173066E-1,9.274559E-1,-9.925229E-2,8.439865E-1,4.658167E-1,-3.0373676E-2,7.707461E-2,3.0829204E-2,1.3576885E0,1.4836062E0,6.1557274E-2,6.5361946E-3,-4.673664E-2,5.0625154E-3,2.8033582E-2,6.2991075E-2,-3.387021E-2,2.373874E-2,-2.0885048E-2,-5.2552562E-2,2.2957386E-2,-1.2475844E-2,-3.771101E-2,-4.599745E-3,-8.667704E-2,-3.083767E-2,-9.300757E-3,-3.695944E-2,-1.4906797E-2,-5.7050552E-2,-3.727388E-2,5.472784E-3,2.8186707E-2,-1.4635651E-2,-2.0946885E-2,-7.075533E-2,-5.1893104E-2,-7.3126845E-2,8.817493E-3,-2.5304997E-2,-8.678103E-2,-3.9941043E-2,3.113681E-2,-5.4622877E-2,1.453536E-2,-3.0577186E-2,-1.0122195E-2,1.8546125E-2,-2.6492298E-2,-8.8721596E-2,4.5743663E-2,1.599055E-2,3.4599278E-2,5.025233E-2,4.5217235E-2,-3.1614155E-2,6.0238063E-2,1.8755816E-2,-7.751535E-3,5.3906776E-2,3.4629025E-2,6.845841E-2,7.482605E-2,3.8233828E-2],"categories":[],"categories_nodes":[],"categories_segments":[],"categories_sizes":[],"default_left":[0,0,0,0,0,0,0,0,0,0,0,0,0,0,0,0,0,0,0,0,0,0,0,0,0,0,0,0,0,0,0,0,0,0,0,0,0,0,0,0,0,0,0,0,0,0,0,0,0,0,0,0,0,0,0,0,0,0,0,0,0,0,0,0,0,0,0,0,0,0,0,0,0,0,0,0,0,0,0,0,0,0,0,0,0,0,0,0,0,0,0,0,0,0,0,0,0,0,0,0,0,0,0,0,0,0,0,0,0,0,0,0,0,0,0],"id":3,"left_children":[1,3,5,7,9,11,13,15,17,19,21,23,25,27,29,31,33,35,37,39,41,43,45,47,49,51,53,55,57,59,61,-1,63,65,67,69,71,73,75,77,79,81,83,85,87,89,91,93,95,97,99,101,103,105,107,109,-1,-1,-1,111,113,-1,-1,-1,-1,-1,-1,-1,-1,-1,-1,-1,-1,-1,-1,-1,-1,-1,-1,-1,-1,-1,-1,-1,-1,-1,-1,-1,-1,-1,-1,-1,-1,-1,-1,-1,-1,-1,-1,-1,-1,-1,-1,-1,-1,-1,-1,-1,-1,-1,-1,-1,-1,-1,-1],"loss_changes":[3.8285015E3,2.5013843E2,7.801616E2,5.6261948E1,8.731421E1,1.9489249E2,2.783789E1,1.6439827E1,8.1796646E1,2.2522308E1,5.2137695E1,1.2102412E2,2.6623352E1,1.5675938E1,5.206787E0,9.259429E0,1.161812E1,3.5268642E1,3.2422928E1,2.8361053E1,1.9821175E1,5.2542847E1,1.8348396E1,2.610144E1,2.8090014E1,1.8913116E1,2.6092167E1,7.3366246E0,3.5181084E0,2.7434082E0,4.6740913E0,0E0,1.1152852E1,3.4219208E0,4.319087E0,1.5010719E1,5.3648422E1,2.19346E1,1.6142487E1,1.963749E1,1.9141449E1,1.2873238E1,1.292829E1,1.8306355E1,3.3673096E1,1.2098488E1,8.070797E0,2.7778015E1,2.2983543E1,1.6823826E1,1.710477E1,2.0721092E1,8.625702E0,3.748023E1,8.031769E0,1.0476833E1,0E0,0E0,0E0,4.1939697E0,4.012451E0,0E0,0E0,0E0,0E0,0E0,0E0,0E0,0E0,0E0,0E0,0E0,0E0,0E0,0E0,0E0,0E0,0E0,0E0,0E0,0E0,0E0,0E0,0E0,0E0,0E0,0E0,0E0,0E0,0E0,0E0,0E0,0E0,0E0,0E0,0E0,0E0,0E0,0E0,0E0,0E0,0E0,0E0,0E0,0E0,0E0,0E0,0E0,0E0,0E0,0E0,0E0,0E0,0E0,0E0],"parents":[2147483647,0,0,1,1,2,2,3,3,4,4,5,5,6,6,7,7,8,8,9,9,10,10,11,11,12,12,13,13,14,14,15,15,16,16,17,17,18,18,19,19,20,20,21,21,22,22,23,23,24,24,25,25,26,26,27,27,28,28,29,29,30,30,32,32,33,33,34,34,35,35,36,36,37,37,38,38,39,39,40,40,41,41,42,42,43,43,44,44,45,45,46,46,47,47,48,48,49,49,50,50,51,51,52,52,53,53,54,54,55,55,59,59,60,60],"right_children":[2,4,6,8,10,12,14,16,18,20,22,24,26,28,30,32,34,36,38,40,42,44,46,48,50,52,54,56,58,60,62,-1,64,66,68,70,72,74,76,78,80,82,84,86,88,90,92,94,96,98,100,102,104,106,108,110,-1,-1,-1,112,114,-1,-1,-1,-1,-1,-1,-1,-1,-1,-1,-1,-1,-1,-1,-1,-1,-1,-1,-1,-1,-1,-1,-1,-1,-1,-1,-1,-1,-1,-1,-1,-1,-1,-1,-1,-1,-1,-1,-1,-1,-1,-1,-1,-1,-1,-1,-1,-1,-1,-1,-1,-1,-1,-1],"split_conditions":[1E0,1.612E3,2E0,5.7E1,3.4285715E3,5E-1,0E0,2.9E5,5.7142856E3,4.7922E4,1.98788E5,1.3333334E3,5.185185E3,2.191E3,2.0901E4,3E4,1.1111111E4,-1E0,3.545E3,1.7391305E3,1E0,2.049E3,4.466143E-2,1.07E2,9E3,1E0,1.36916E5,1.38E3,3.06E2,2E0,3.005E3,5.9864737E-2,1E5,8.666667E3,4E5,3.98E2,8.203333E2,1E3,3.6E5,1.5864E4,2.268E3,1.30525E5,8.465E3,2.1074666E4,9.803922E3,2.3E5,4.753727E-2,2.2832E4,6.3157896E3,2E0,7E3,1.6771E4,6.666667E-1,8.766E3,8.007E3,6.21E2,-3.0373676E-2,7.707461E-2,3.0829204E-2,2E4,1.0715E4,6.1557274E-2,6.5361946E-3,-4.673664E-2,5.0625154E-3,2.8033582E-2,6.2991075E-2,-3.387021E-2,2.373874E-2,-2.0885048E-2,-5.2552562E-2,2.2957386E-2,-1.2475844E-2,-3.771101E-2,-4.599745E-3,-8.667704E-2,-3.083767E-2,-9.300757E-3,-3.695944E-2,-1.4906797E-2,-5.7050552E-2,-3.727388E-2,5.472784E-3,2.8186707E-2,-1.4635651E-2,-2.0946885E-2,-7.075533E-2,-5.1893104E-2,-7.3126845E-2,8.817493E-3,-2.5304997E-2,-8.678103E-2,-3.9941043E-2,3.113681E-2,-5.4622877E-2,1.453536E-2,-3.0577186E-2,-1.0122195E-2,1.8546125E-2,-2.6492298E-2,-8.8721596E-2,4.5743663E-2,1.599055E-2,3.4599278E-2,5.025233E-2,4.5217235E-2,-3.1614155E-2,6.0238063E-2,1.8755816E-2,-7.751535E-3,5.3906776E-2,3.4629025E-2,6.845841E-2,7.482605E-2,3.8233828E-2],"split_indices":[21,15,2,23,27,20,4,0,27,9,8,24,27,8,18,0,27,4,10,27,29,8,26,17,27,2,11,8,17,6,15,0,0,27,0,12,23,10,0,11,9,9,12,23,27,0,26,8,27,3,19,8,20,8,15,8,0,0,0,0,16,0,0,0,0,0,0,0,0,0,0,0,0,0,0,0,0,0,0,0,0,0,0,0,0,0,0,0,0,0,0,0,0,0,0,0,0,0,0,0,0,0,0,0,0,0,0,0,0,0,0,0,0,0,0],"split_type":[0,0,0,0,0,0,0,0,0,0,0,0,0,0,0,0,0,0,0,0,0,0,0,0,0,0,0,0,0,0,0,0,0,0,0,0,0,0,0,0,0,0,0,0,0,0,0,0,0,0,0,0,0,0,0,0,0,0,0,0,0,0,0,0,0,0,0,0,0,0,0,0,0,0,0,0,0,0,0,0,0,0,0,0,0,0,0,0,0,0,0,0,0,0,0,0,0,0,0,0,0,0,0,0,0,0,0,0,0,0,0,0,0,0,0],"sum_hessian":[7.4624575E3,4.0913052E3,3.3711523E3,1.5071077E3,2.5841978E3,2.0190292E3,1.3521233E3,1.23328896E2,1.3837787E3,9.1126965E2,1.672928E3,1.1411854E3,8.778437E2,5.8268375E1,1.2938549E3,7.42646E1,4.9064297E1,9.8290454E2,4.008742E2,4.8091443E2,4.3035526E2,1.424064E3,2.4886401E2,5.9301953E2,5.481659E2,7.5971155E2,1.1813213E2,3.3227654E1,2.5040722E1,1.2782349E3,1.5620087E1,5.14766E0,6.911694E1,3.8058533E1,1.1005764E1,1.6948367E2,8.1342084E2,3.347915E2,6.6082695E1,2.6936133E2,2.115531E2,1.9077293E2,2.3958232E2,1.8080481E2,1.2432592E3,1.950962E2,5.3767796E1,3.9877588E2,1.9424367E2,4.8795404E2,6.021187E1,2.412413E2,5.184703E2,6.804525E1,5.008688E1,2.5876764E1,7.3508873E0,1.6435373E1,8.605349E0,6.9948895E2,5.7874585E2,8.009457E0,7.61063E0,1.1623094E1,5.7493847E1,1.4393477E1,2.3665056E1,5.7578363E0,5.247927E0,1.1130837E2,5.81753E1,1.2540346E2,6.880174E2,2.7279315E2,6.1998356E1,4.556095E1,2.0521746E1,1.0886009E2,1.6050124E2,3.3107735E1,1.7844536E2,1.7164742E2,1.9125513E1,1.8151352E1,2.2143097E2,1.6046828E2,2.0336529E1,1.0023411E3,2.4091801E2,3.0034773E1,1.6506145E2,1.3430065E1,4.033773E1,3.9002075E2,8.7551155E0,1.6107037E2,3.3173286E1,4.309351E2,5.7018936E1,4.575892E1,1.4452948E1,1.0491826E2,1.3632304E2,1.3127809E2,3.8719217E2,2.3297054E1,4.47482E1,2.729885E1,2.2788033E1,1.3138633E1,1.27381315E1,1.305658E1,6.864324E2,5.673337E2,1.1412167E1],"tree_param":{"num_deleted":"0","num_feature":"34","num_nodes":"115","size_leaf_vector":"1"}},{"base_weights":[-1.32917315E-2,-6.1403096E-1,7.3129284E-1,-2.0692213E-1,-7.4292564E-1,3.4734637E-1,1.3088998E0,1.0764887E-1,-3.5012853E-1,-4.3767807E-1,-8.8791144E-1,1.5558645E-1,7.644446E-1,4.40733E-1,1.3313262E0,-2.6154014E-1,3.5401076E-1,-1.9288985E-1,-7.150894E-1,-3.7025532E-1,-7.8751296E-1,-5.5518675E-1,-9.8051083E-1,5.0055206E-1,-4.1405734E-2,8.1845194E-1,1.6428217E-1,7.707105E-1,-4.260093E-2,1.340467E0,4.3344945E-3,-7.623929E-2,-6.332139E-1,4.2079657E-1,-3.881782E-2,2.5872904E-1,-2.9392222E-1,-5.3043276E-1,-1.1829138E0,-4.717264E-2,-4.4171587E-1,-9.378298E-1,-2.2561665E-1,-1.6014338E-1,-6.568286E-1,-1.1566831E0,-6.254948E-1,5.368809E-1,-2.7571893E-1,2.7010346E-2,-6.941617E-1,9.1772133E-1,5.544658E-1,-4.836076E-1,8.215984E-1,6.964901E-2,2.7851436E-1,1.3473369E0,4.5849276E-1,-4.0531825E-2,3.5596848E-3,-6.938534E-2,-1.7305898E-2,1.6307157E-2,4.2842746E-2,2.0117683E-2,-3.878399E-2,-0E0,-2.2743111E-2,-2.05348E-2,-8.683069E-2,-3.849057E-2,-8.685171E-2,2.9301548E-2,-1.055036E-2,-3.0921543E-2,-1.5721498E-2,-1.813103E-2,-5.6583077E-2,2.3823863E-2,-5.4247964E-2,8.243396E-3,-3.403033E-2,-2.6511699E-2,-4.7110267E-2,-3.8142692E-2,-6.274478E-2,3.2531663E-3,-3.4715157E-2,3.0276105E-2,7.927186E-3,1.1086331E-2,-6.486685E-2,-4.4576037E-3,2.1626486E-2,6.8269297E-3,-4.570527E-2,4.7673237E-2,2.159326E-2,2.2117926E-2,6.633921E-2,1.3352986E-3,-7.354344E-2,5.32923E-2,-5.4983622E-3,5.2878756E-2,-1.284557E-2,6.4513735E-2,7.085221E-2,-8.095659E-3,5.2185576E-2],"categories":[],"categories_nodes":[],"categories_segments":[],"categories_sizes":[],"default_left":[0,0,0,0,0,0,0,0,0,0,0,0,0,0,0,0,0,0,0,0,0,0,0,0,0,0,0,0,0,0,0,0,0,0,0,0,0,0,0,0,0,0,0,0,0,0,0,0,0,0,0,0,0,0,0,0,0,0,0,0,0,0,0,0,0,0,0,0,0,0,0,0,0,0,0,0,0,0,0,0,0,0,0,0,0,0,0,0,0,0,0,0,0,0,0,0,0,0,0,0,0,0,0,0,0,0,0,0,0,0,0],"id":4,"left_children":[1,3,5,7,9,11,13,15,17,19,21,23,25,27,29,31,33,35,37,39,41,43,45,47,49,51,53,55,-1,57,-1,59,61,63,-1,65,67,69,71,73,75,77,79,81,83,85,87,89,91,93,95,97,99,101,103,-1,105,107,109,-1,-1,-1,-1,-1,-1,-1,-1,-1,-1,-1,-1,-1,-1,-1,-1,-1,-1,-1,-1,-1,-1,-1,-1,-1,-1,-1,-1,-1,-1,-1,-1,-1,-1,-1,-1,-1,-1,-1,-1,-1,-1,-1,-1,-1,-1,-1,-1,-1,-1,-1,-1],"loss_changes":[3.3028083E3,2.1420044E2,7.305835E2,4.44046E1,1.368258E2,1.5831914E2,2.4859863E1,2.815881E1,3.861328E1,2.3216537E1,6.409131E1,9.243356E1,1.9987518E1,1.5471199E1,1.432959E1,8.412107E0,1.43026085E1,2.1735113E1,1.6758987E1,1.9366821E1,1.3246216E1,1.8298065E1,1.01888794E2,1.4114349E1,3.875615E1,1.43315735E1,2.2962282E1,8.102957E0,0E0,6.9138184E0,0E0,9.224325E0,8.204685E0,6.8656635E0,0E0,1.3217312E1,1.8383198E1,2.0402382E1,1.1357788E1,1.6046898E1,1.5210312E1,1.3525856E1,2.1921818E1,1.635759E1,1.2562363E1,4.1273804E1,2.6120407E1,1.2102844E1,1.1899301E1,3.703174E1,1.5243618E1,6.636261E0,1.301099E1,1.3885939E1,6.2900257E0,0E0,7.4945235E0,2.9221191E0,4.420209E0,0E0,0E0,0E0,0E0,0E0,0E0,0E0,0E0,0E0,0E0,0E0,0E0,0E0,0E0,0E0,0E0,0E0,0E0,0E0,0E0,0E0,0E0,0E0,0E0,0E0,0E0,0E0,0E0,0E0,0E0,0E0,0E0,0E0,0E0,0E0,0E0,0E0,0E0,0E0,0E0,0E0,0E0,0E0,0E0,0E0,0E0,0E0,0E0,0E0,0E0,0E0,0E0],"parents":[2147483647,0,0,1,1,2,2,3,3,4,4,5,5,6,6,7,7,8,8,9,9,10,10,11,11,12,12,13,13,14,14,15,15,16,16,17,17,18,18,19,19,20,20,21,21,22,22,23,23,24,24,25,25,26,26,27,27,29,29,31,31,32,32,33,33,35,35,36,36,37,37,38,38,39,39,40,40,41,41,42,42,43,43,44,44,45,45,46,46,47,47,48,48,49,49,50,50,51,51,52,52,53,53,54,54,56,56,57,57,58,58],"right_children":[2,4,6,8,10,12,14,16,18,20,22,24,26,28,30,32,34,36,38,40,42,44,46,48,50,52,54,56,-1,58,-1,60,62,64,-1,66,68,70,72,74,76,78,80,82,84,86,88,90,92,94,96,98,100,102,104,-1,106,108,110,-1,-1,-1,-1,-1,-1,-1,-1,-1,-1,-1,-1,-1,-1,-1,-1,-1,-1,-1,-1,-1,-1,-1,-1,-1,-1,-1,-1,-1,-1,-1,-1,-1,-1,-1,-1,-1,-1,-1,-1,-1,-1,-1,-1,-1,-1,-1,-1,-1,-1,-1,-1],"split_conditions":[1E0,1.1826666E3,2E0,4.94E2,3E3,3E0,5.5E2,3.4E1,4.4117646E3,4.579E3,4.087E3,8.833333E2,5.701E3,6.88E2,1E0,2.91E2,1.252E3,5.5555554E2,0E0,7.62E2,6.88E3,4.6296294E3,1.26749E5,1.09375E4,9E3,2.7586206E3,1.21893E5,1.25E3,-4.260093E-2,2.8087E4,4.3344945E-3,3.2142856E3,-1E0,8.666667E3,-3.881782E-2,1.612E3,8.26E3,1.15E3,6.12E2,7.46E2,1E0,3.25E3,8.1833335E3,1E0,5.2E3,6.808E3,3.71E3,6.66E2,-1E0,2E0,6.26E2,3.558E3,1.37632E5,3.4615386E3,7.5E3,6.964901E-2,2.91E2,2E0,3.8E1,-4.0531825E-2,3.5596848E-3,-6.938534E-2,-1.7305898E-2,1.6307157E-2,4.2842746E-2,2.0117683E-2,-3.878399E-2,-0E0,-2.2743111E-2,-2.05348E-2,-8.683069E-2,-3.849057E-2,-8.685171E-2,2.9301548E-2,-1.055036E-2,-3.0921543E-2,-1.5721498E-2,-1.813103E-2,-5.6583077E-2,2.3823863E-2,-5.4247964E-2,8.243396E-3,-3.403033E-2,-2.6511699E-2,-4.7110267E-2,-3.8142692E-2,-6.274478E-2,3.2531663E-3,-3.4715157E-2,3.0276105E-2,7.927186E-3,1.1086331E-2,-6.486685E-2,-4.4576037E-3,2.1626486E-2,6.8269297E-3,-4.570527E-2,4.7673237E-2,2.159326E-2,2.2117926E-2,6.633921E-2,1.3352986E-3,-7.354344E-2,5.32923E-2,-5.4983622E-3,5.2878756E-2,-1.284557E-2,6.4513735E-2,7.085221E-2,-8.095659E-3,5.2185576E-2],"split_indices":[22,24,2,8,27,22,8,1,27,15,9,24,15,11,31,11,19,27,3,18,16,27,8,27,27,27,10,27,0,18,0,27,2,27,0,15,8,13,16,12,29,24,24,32,15,8,15,16,4,3,11,14,13,27,27,0,8,6,1,0,0,0,0,0,0,0,0,0,0,0,0,0,0,0,0,0,0,0,0,0,0,0,0,0,0,0,0,0,0,0,0,0,0,0,0,0,0,0,0,0,0,0,0,0,0,0,0,0,0,0,0],"split_type":[0,0,0,0,0,0,0,0,0,0,0,0,0,0,0,0,0,0,0,0,0,0,0,0,0,0,0,0,0,0,0,0,0,0,0,0,0,0,0,0,0,0,0,0,0,0,0,0,0,0,0,0,0,0,0,0,0,0,0,0,0,0,0,0,0,0,0,0,0,0,0,0,0,0,0,0,0,0,0,0,0,0,0,0,0,0,0,0,0,0,0,0,0,0,0,0,0,0,0,0,0,0,0,0,0,0,0,0,0,0,0],"sum_hessian":[7.381881E3,4.0857563E3,3.2961248E3,9.8332965E2,3.1024268E3,1.9810543E3,1.3150704E3,3.0747403E2,6.758556E2,1.00057104E3,2.1018557E3,1.358226E3,6.228283E2,3.374778E1,1.2813226E3,1.2287319E2,1.8460085E2,4.7360953E2,2.0224606E2,8.4085876E2,1.5971223E2,4.593634E2,1.6424923E3,4.933158E2,8.649102E2,5.7092194E2,5.190636E1,2.7268593E1,6.4791884E0,1.271825E3,9.497678E0,8.297803E1,3.9895164E1,1.7497871E2,9.622121E0,8.611615E1,3.8749338E2,1.4669225E2,5.555382E1,1.5285239E2,6.880064E2,1.2533577E2,3.4376465E1,9.473272E1,3.6463068E2,1.0960509E3,5.464414E2,4.7167883E2,2.1636957E1,7.83587E2,8.1323204E1,4.1282715E2,1.5809479E2,2.6197092E1,2.5709269E1,1.1144991E1,1.6123602E1,1.2613589E3,1.0466112E1,1.3234402E1,6.974362E1,9.843739E0,3.0051428E1,1.4539554E2,2.9583176E1,7.623838E1,9.877769E0,1.374284E2,2.5006497E2,1.347401E2,1.1952159E1,3.329888E1,2.225494E1,3.0764282E1,1.2208811E2,2.861254E2,4.0188098E2,3.2443653E1,9.289212E1,1.9100378E1,1.5276088E1,5.861855E1,3.6114166E1,2.5480586E2,1.09824814E2,2.20727E2,8.753239E2,4.9387867E1,4.9705356E2,3.9851245E2,7.316638E1,1.5012273E1,6.6246843E0,6.095211E2,1.7406587E2,1.700855E1,6.431465E1,3.8344937E2,2.9377766E1,1.3954163E2,1.8553165E1,1.7844803E1,8.352289E0,2.0339617E1,5.369652E0,6.2464256E0,9.877175E0,7.051064E2,5.562525E2,5.3484893E0,5.1176224E0],"tree_param":{"num_deleted":"0","num_feature":"34","num_nodes":"111","size_leaf_vector":"1"}},{"base_weights":[6.4174016E-3,-5.808582E-1,7.2299284E-1,-2.9419634E-1,-7.4940795E-1,3.6329558E-1,1.2634239E0,1.0771391E-2,-4.1172165E-1,-9.465486E-1,-4.7144192E-1,1.192933E-1,6.8213165E-1,1.2740265E0,1.8192537E-1,9.862197E-1,-3.848092E-2,-2.130192E-1,-7.1747E-1,-5.849937E-1,-1.1217071E0,-3.1987366E-1,-6.3297814E-1,4.7876814E-1,-8.470609E-2,5.366539E-1,8.665685E-1,1.2803165E0,7.6377033E-3,-2.2036204E-2,3.7129402E-2,6.934952E-2,4.9546985E-3,-1.7781077E-1,2.6805735E-1,-8.462354E-1,-1.5866403E-1,-4.9933234E-1,-1.0036536E0,-6.313636E-1,6.239728E-1,-3.701657E-1,-1.1538652E0,-3.563033E-1,9.656447E-1,-7.710747E-1,-3.279469E-1,5.7302326E-1,-1.0124053E-1,-1.6759325E-2,-6.5781915E-1,5.954018E-1,-4.7287083E-1,9.551555E-1,5.2448714E-1,9.403549E-1,1.3023155E0,1.1110212E-2,-2.369203E-2,2.5800882E-2,-1.4285386E-2,-3.0326037E-2,-8.4314086E-2,2.4403331E-3,-1.6948124E-2,-2.9441265E-2,3.7096445E-2,-5.33878E-2,2.8106555E-2,-2.7182853E-2,-5.6470763E-2,5.7395317E-2,-4.408379E-3,-4.768173E-2,1.41342385E-2,-4.4613466E-2,-6.311319E-2,-3.0399472E-2,-8.828112E-3,7.507719E-2,1.1573966E-4,-4.52014E-2,-1.9655129E-2,1.717342E-2,-2.2292495E-2,5.09749E-2,2.5077084E-2,-8.452463E-2,1.8992143E-2,2.151224E-3,-2.1701846E-2,1.9020971E-3,-4.646368E-2,3.282164E-2,1.441034E-3,-4.0991884E-2,2.6022205E-2,4.9394734E-2,1.4951951E-2,-4.036216E-2,3.1591553E-2,5.522258E-2,7.12851E-3,6.99993E-2,6.047825E-2],"categories":[],"categories_nodes":[],"categories_segments":[],"categories_sizes":[],"default_left":[0,0,0,0,0,0,0,0,0,0,0,0,0,0,0,0,0,0,0,0,0,0,0,0,0,0,0,0,0,0,0,0,0,0,0,0,0,0,0,0,0,0,0,0,0,0,0,0,0,0,0,0,0,0,0,0,0,0,0,0,0,0,0,0,0,0,0,0,0,0,0,0,0,0,0,0,0,0,0,0,0,0,0,0,0,0,0,0,0,0,0,0,0,0,0,0,0,0,0,0,0,0,0,0,0],"id":5,"left_children":[1,3,5,7,9,11,13,15,17,19,21,23,25,27,29,31,33,35,37,39,41,43,45,47,49,51,53,55,-1,-1,-1,-1,-1,57,59,61,63,65,67,69,71,73,75,77,79,81,83,85,87,89,91,93,95,97,99,101,103,-1,-1,-1,-1,-1,-1,-1,-1,-1,-1,-1,-1,-1,-1,-1,-1,-1,-1,-1,-1,-1,-1,-1,-1,-1,-1,-1,-1,-1,-1,-1,-1,-1,-1,-1,-1,-1,-1,-1,-1,-1,-1,-1,-1,-1,-1,-1,-1],"loss_changes":[3.1326626E3,1.9734131E2,6.5116956E2,5.4403244E1,1.4053992E2,1.5656949E2,1.4980469E1,2.0436903E1,6.6279816E1,9.451941E1,2.5920425E1,8.3872116E1,2.2818298E1,9.013916E0,5.3359838E0,6.984125E0,1.7258247E1,2.2664396E1,2.6236435E1,2.8066956E1,2.3901367E1,2.626524E1,2.1416595E1,2.2738297E1,2.8334038E1,2.9412064E1,1.095813E1,8.411865E0,0E0,0E0,0E0,0E0,0E0,3.3051674E1,1.7494175E1,9.263454E0,2.301677E1,2.7814709E1,1.9230179E1,2.0009964E1,7.168295E0,1.677885E1,2.6186035E1,2.4257515E1,7.8391867E0,1.7351486E1,1.3074207E1,1.0711914E1,4.5557495E1,1.6359646E1,1.4698063E1,1.5974731E1,9.921977E0,6.079895E0,1.2105459E1,1.0715622E1,9.237793E0,0E0,0E0,0E0,0E0,0E0,0E0,0E0,0E0,0E0,0E0,0E0,0E0,0E0,0E0,0E0,0E0,0E0,0E0,0E0,0E0,0E0,0E0,0E0,0E0,0E0,0E0,0E0,0E0,0E0,0E0,0E0,0E0,0E0,0E0,0E0,0E0,0E0,0E0,0E0,0E0,0E0,0E0,0E0,0E0,0E0,0E0,0E0,0E0],"parents":[2147483647,0,0,1,1,2,2,3,3,4,4,5,5,6,6,7,7,8,8,9,9,10,10,11,11,12,12,13,13,14,14,15,15,16,16,17,17,18,18,19,19,20,20,21,21,22,22,23,23,24,24,25,25,26,26,27,27,33,33,34,34,35,35,36,36,37,37,38,38,39,39,40,40,41,41,42,42,43,43,44,44,45,45,46,46,47,47,48,48,49,49,50,50,51,51,52,52,53,53,54,54,55,55,56,56],"right_children":[2,4,6,8,10,12,14,16,18,20,22,24,26,28,30,32,34,36,38,40,42,44,46,48,50,52,54,56,-1,-1,-1,-1,-1,58,60,62,64,66,68,70,72,74,76,78,80,82,84,86,88,90,92,94,96,98,100,102,104,-1,-1,-1,-1,-1,-1,-1,-1,-1,-1,-1,-1,-1,-1,-1,-1,-1,-1,-1,-1,-1,-1,-1,-1,-1,-1,-1,-1,-1,-1,-1,-1,-1,-1,-1,-1,-1,-1,-1,-1,-1,-1,-1,-1,-1,-1,-1,-1],"split_conditions":[1E0,1.64E3,2E0,7.661667E2,6.679619E-1,5E-1,2.2724223E0,6.521739E2,3.9130435E3,6.808E3,3E3,6.815E2,4E0,1E0,2.218E3,1.5E2,-1E0,-1E0,6.808E3,1.4465E-1,2.7180068E-2,2.2950524E-1,9.827206E-1,4.5E2,9E3,8E3,3.314E3,2.191E3,7.6377033E-3,-2.2036204E-2,3.7129402E-2,6.934952E-2,4.9546985E-3,5.7E1,5.7142856E3,3.2E3,5.5E2,6.105E3,9.763941E-1,1.52175E4,2.2938E-1,9.331E3,4.3333335E3,1E0,2.506E3,1.90202E5,9.8938E-1,1.02040814E3,4.6816666E2,7.5E3,6.88E2,5.909091E3,2.62786E5,3.0167454E-1,3.652E3,1.114E3,7.169333E-1,1.1110212E-2,-2.369203E-2,2.5800882E-2,-1.4285386E-2,-3.0326037E-2,-8.4314086E-2,2.4403331E-3,-1.6948124E-2,-2.9441265E-2,3.7096445E-2,-5.33878E-2,2.8106555E-2,-2.7182853E-2,-5.6470763E-2,5.7395317E-2,-4.408379E-3,-4.768173E-2,1.41342385E-2,-4.4613466E-2,-6.311319E-2,-3.0399472E-2,-8.828112E-3,7.507719E-2,1.1573966E-4,-4.52014E-2,-1.9655129E-2,1.717342E-2,-2.2292495E-2,5.09749E-2,2.5077084E-2,-8.452463E-2,1.8992143E-2,2.151224E-3,-2.1701846E-2,1.9020971E-3,-4.646368E-2,3.282164E-2,1.441034E-3,-4.0991884E-2,2.6022205E-2,4.9394734E-2,1.4951951E-2,-4.036216E-2,3.1591553E-2,5.522258E-2,7.12851E-3,6.99993E-2,6.047825E-2],"split_indices":[21,15,2,23,25,20,26,27,27,8,19,24,22,31,18,9,20,4,8,25,26,26,25,15,27,19,15,8,0,0,0,0,0,23,27,27,19,8,25,23,25,15,27,29,15,11,25,27,23,24,11,27,10,26,15,19,25,0,0,0,0,0,0,0,0,0,0,0,0,0,0,0,0,0,0,0,0,0,0,0,0,0,0,0,0,0,0,0,0,0,0,0,0,0,0,0,0,0,0,0,0,0,0,0,0],"split_type":[0,0,0,0,0,0,0,0,0,0,0,0,0,0,0,0,0,0,0,0,0,0,0,0,0,0,0,0,0,0,0,0,0,0,0,0,0,0,0,0,0,0,0,0,0,0,0,0,0,0,0,0,0,0,0,0,0,0,0,0,0,0,0,0,0,0,0,0,0,0,0,0,0,0,0,0,0,0,0,0,0,0,0,0,0,0,0,0,0,0,0,0,0,0,0,0,0,0,0,0,0,0,0,0,0],"sum_hessian":[7.442027E3,4.0900452E3,3.3519817E3,1.5156447E3,2.5744006E3,2.0136226E3,1.3383591E3,4.2162436E2,1.0940203E3,1.5045616E3,1.0698389E3,1.1416309E3,8.719917E2,1.325098E3,1.3261168E1,1.9448614E1,4.0217575E2,6.6431384E2,4.297064E2,4.926222E2,1.01193945E3,5.53806E2,5.1603284E2,4.130042E2,7.2862665E2,4.8997067E2,3.8202103E2,1.3174763E3,7.6216497E0,6.3000965E0,6.961071E0,1.2930777E1,6.5178375E0,2.7701236E2,1.2516338E2,5.121943E1,6.130944E2,2.4559828E2,1.8410812E2,4.749654E2,1.7656788E1,4.216462E1,9.6977484E2,5.3932306E2,1.4482977E1,3.5393875E2,1.620941E2,3.5542917E2,5.7575058E1,6.5247473E2,7.615194E1,4.6350677E2,2.6463898E1,3.0178488E2,8.023614E1,8.300776E1,1.2344685E3,1.17776535E2,1.5923582E2,8.6624245E1,3.853914E1,4.128067E1,9.938757E0,2.8514767E2,3.2794678E2,2.2964726E2,1.5951015E1,1.7723418E2,6.8739367E0,4.057972E2,6.9168175E1,9.900982E0,7.7558055E0,2.2103033E1,2.0061586E1,2.870931E2,6.8268176E2,2.234682E2,3.1585486E2,8.880346E0,5.602631E0,2.6061133E2,9.332743E1,2.3800049E1,1.3829405E2,4.7028324E1,3.0840085E2,1.2842843E1,4.4732212E1,5.7128357E2,8.119116E1,2.1508179E1,5.464376E1,4.1813144E2,4.5375362E1,1.9817074E1,6.646824E0,2.868152E2,1.4969698E1,5.4291573E0,7.4806984E1,6.8423874E1,1.4583884E1,5.9389575E2,6.405728E2],"tree_param":{"num_deleted":"0","num_feature":"34","num_nodes":"105","size_leaf_vector":"1"}},{"base_weights":[-4.5704567E-3,-5.0450456E-1,7.796639E-1,2.6177883E-2,-6.420556E-1,4.1223803E-1,1.2060118E0,3.194452E-1,-1.3162966E-1,-3.43586E-1,-8.0316913E-1,1.8951812E-1,7.4522996E-1,7.4437994E-1,1.2413348E0,3.60311E-1,-7.9718065E-1,-5.255369E-1,-2.2965977E-2,3.0185573E-2,-4.1925627E-1,-8.782431E-1,-4.5264798E-1,3.9121747E-1,-3.3427036E-4,8.36988E-1,3.7603635E-1,2.4767967E-1,1.0302083E0,1.2493888E0,1.2066527E-3,3.8890857E-1,-3.093651E-2,-7.924889E-2,7.6094493E-3,-7.555151E-1,-0E0,1.2477513E-1,-2.8071463E-1,1.3697515E-1,-7.2892565E-1,-6.344472E-1,-2.8323323E-1,-6.8225425E-1,-1.0976866E0,-9.3913686E-1,-3.2678565E-1,4.1863108E-1,-7.972723E-2,-1.8807414E-1,4.8811707E-1,8.5111296E-1,-1.3376764E-2,4.9150184E-1,-6.912258E-2,6.4799744E-1,-5.598402E-1,1.1364887E0,8.998271E-3,1.2933097E0,1.1394293E0,2.0603066E-2,-3.376068E-2,-2.8723571E-2,-7.649953E-2,6.2221736E-2,-1.5900947E-2,6.4302E-4,3.6734555E-2,-7.957723E-3,-8.760261E-2,-1.35022225E-2,1.7097998E-2,-7.615549E-2,1.6583817E-2,-1.6520066E-2,-4.3323338E-2,-9.831921E-3,-2.845628E-2,-1.3204493E-2,-3.8735043E-2,-4.9824115E-2,-6.5898314E-2,-7.385879E-2,-3.3698816E-2,-2.7108653E-2,-2.664121E-3,4.3269843E-2,1.6167572E-2,-5.175783E-2,-4.837658E-3,3.2843076E-2,-1.8297782E-3,2.9426022E-2,4.645014E-2,2.83341E-3,3.6684643E-2,2.5147847E-3,4.918192E-2,-6.2862605E-2,8.2357945E-3,6.401571E-2,1.6410602E-2,6.5092795E-2,3.389446E-2,1.4068608E-2,5.8011767E-2],"categories":[],"categories_nodes":[],"categories_segments":[],"categories_sizes":[],"default_left":[0,0,0,0,0,0,0,0,0,0,0,0,0,0,0,0,0,0,0,0,0,0,0,0,0,0,0,0,0,0,0,0,0,0,0,0,0,0,0,0,0,0,0,0,0,0,0,0,0,0,0,0,0,0,0,0,0,0,0,0,0,0,0,0,0,0,0,0,0,0,0,0,0,0,0,0,0,0,0,0,0,0,0,0,0,0,0,0,0,0,0,0,0,0,0,0,0,0,0,0,0,0,0,0,0,0,0],"id":6,"left_children":[1,3,5,7,9,11,13,15,17,19,21,23,25,27,29,31,33,35,37,39,41,43,45,47,49,51,53,55,57,59,-1,61,-1,-1,-1,63,65,67,69,71,73,75,77,79,81,83,85,87,-1,89,91,93,-1,95,-1,97,99,101,-1,103,105,-1,-1,-1,-1,-1,-1,-1,-1,-1,-1,-1,-1,-1,-1,-1,-1,-1,-1,-1,-1,-1,-1,-1,-1,-1,-1,-1,-1,-1,-1,-1,-1,-1,-1,-1,-1,-1,-1,-1,-1,-1,-1,-1,-1,-1,-1],"loss_changes":[2.8618809E3,3.254851E2,4.4449475E2,4.25657E1,1.6986035E2,1.1308475E2,2.0315552E1,1.4929016E1,2.5512718E1,3.521118E1,5.994983E1,3.5157803E1,2.0291534E1,1.32673645E1,1.1798462E1,8.931755E0,9.050602E0,1.5567074E1,1.7934547E1,1.7064991E1,2.9997925E1,8.042822E1,2.4531311E1,2.4770645E1,4.3452114E1,7.9155884E0,2.573355E1,1.2191364E1,5.1385193E0,4.133789E0,0E0,7.719944E0,0E0,0E0,0E0,1.1484222E1,1.6317087E1,2.0323153E1,3.0234024E1,1.5540082E1,2.2476057E1,2.7770493E1,1.5549332E1,3.8429993E1,1.830774E1,1.0645615E1,1.9093105E1,1.8318954E1,0E0,2.629403E1,1.1729557E1,9.184204E0,0E0,1.2200127E1,0E0,4.8607826E0,6.6692324E0,5.645378E0,0E0,3.4302979E0,5.864105E0,0E0,0E0,0E0,0E0,0E0,0E0,0E0,0E0,0E0,0E0,0E0,0E0,0E0,0E0,0E0,0E0,0E0,0E0,0E0,0E0,0E0,0E0,0E0,0E0,0E0,0E0,0E0,0E0,0E0,0E0,0E0,0E0,0E0,0E0,0E0,0E0,0E0,0E0,0E0,0E0,0E0,0E0,0E0,0E0,0E0,0E0],"parents":[2147483647,0,0,1,1,2,2,3,3,4,4,5,5,6,6,7,7,8,8,9,9,10,10,11,11,12,12,13,13,14,14,15,15,16,16,17,17,18,18,19,19,20,20,21,21,22,22,23,23,24,24,25,25,26,26,27,27,28,28,29,29,31,31,35,35,36,36,37,37,38,38,39,39,40,40,41,41,42,42,43,43,44,44,45,45,46,46,47,47,49,49,50,50,51,51,53,53,55,55,56,56,57,57,59,59,60,60],"right_children":[2,4,6,8,10,12,14,16,18,20,22,24,26,28,30,32,34,36,38,40,42,44,46,48,50,52,54,56,58,60,-1,62,-1,-1,-1,64,66,68,70,72,74,76,78,80,82,84,86,88,-1,90,92,94,-1,96,-1,98,100,102,-1,104,106,-1,-1,-1,-1,-1,-1,-1,-1,-1,-1,-1,-1,-1,-1,-1,-1,-1,-1,-1,-1,-1,-1,-1,-1,-1,-1,-1,-1,-1,-1,-1,-1,-1,-1,-1,-1,-1,-1,-1,-1,-1,-1,-1,-1,-1,-1],"split_conditions":[2E0,1.4615E3,2E0,5.7E1,2.7586206E3,3E0,2.191E3,1.2928334E3,-1.8333334E0,7.407407E2,8.5841E-1,1.6429E4,3.5E3,0E0,1E0,1.23E2,6.035E3,6.21E2,3.96E2,2.0039E4,6.2359166E-1,2.2571E4,1.15027E5,4.1719E4,9.68125E-1,9.47E3,1.0475115E-1,1.08E3,7.371E3,9.2086E-1,1.2066527E-3,8.1E1,-3.093651E-2,-7.924889E-2,7.6094493E-3,7.96E2,7.59E2,1.186E3,1.946E3,1E0,2.7518666E4,9.831333E3,6.345715E-2,7.8E2,7.2649054E-2,3.7347317E-2,1E0,6.060606E2,-7.972723E-2,2.00725E-1,4.8067678E-2,1E0,-1.3376764E-2,6.3984E-1,-6.912258E-2,4.91E2,2.025E3,3.3333333E0,8.998271E-3,4E0,1.6666667E2,2.0603066E-2,-3.376068E-2,-2.8723571E-2,-7.649953E-2,6.2221736E-2,-1.5900947E-2,6.4302E-4,3.6734555E-2,-7.957723E-3,-8.760261E-2,-1.35022225E-2,1.7097998E-2,-7.615549E-2,1.6583817E-2,-1.6520066E-2,-4.3323338E-2,-9.831921E-3,-2.845628E-2,-1.3204493E-2,-3.8735043E-2,-4.9824115E-2,-6.5898314E-2,-7.385879E-2,-3.3698816E-2,-2.7108653E-2,-2.664121E-3,4.3269843E-2,1.6167572E-2,-5.175783E-2,-4.837658E-3,3.2843076E-2,-1.8297782E-3,2.9426022E-2,4.645014E-2,2.83341E-3,3.6684643E-2,2.5147847E-3,4.918192E-2,-6.2862605E-2,8.2357945E-3,6.401571E-2,1.6410602E-2,6.5092795E-2,3.389446E-2,1.4068608E-2,5.8011767E-2],"split_indices":[21,23,2,23,27,22,8,24,20,27,25,8,15,4,31,8,24,15,16,10,25,23,8,10,25,24,26,12,13,25,0,17,0,0,0,9,10,15,8,28,23,23,26,8,26,26,28,27,0,25,26,3,0,25,0,18,17,20,0,3,24,0,0,0,0,0,0,0,0,0,0,0,0,0,0,0,0,0,0,0,0,0,0,0,0,0,0,0,0,0,0,0,0,0,0,0,0,0,0,0,0,0,0,0,0,0,0],"split_type":[0,0,0,0,0,0,0,0,0,0,0,0,0,0,0,0,0,0,0,0,0,0,0,0,0,0,0,0,0,0,0,0,0,0,0,0,0,0,0,0,0,0,0,0,0,0,0,0,0,0,0,0,0,0,0,0,0,0,0,0,0,0,0,0,0,0,0,0,0,0,0,0,0,0,0,0,0,0,0,0,0,0,0,0,0,0,0,0,0,0,0,0,0,0,0,0,0,0,0,0,0,0,0,0,0,0,0],"sum_hessian":[7.297563E3,4.4568755E3,2.840687E3,9.1743256E2,3.539443E3,1.5269585E3,1.3137286E3,3.2082513E2,5.966074E2,1.242119E3,2.297324E3,9.160995E2,6.1085895E2,9.5148575E1,1.2185801E3,3.1023804E2,1.0587088E1,1.2796739E2,4.6864005E2,2.090081E2,1.033111E3,1.8906067E3,4.0671735E2,4.4393192E2,4.7216757E2,4.8802826E2,1.2283071E2,3.5563774E1,5.9584797E1,1.210462E3,8.118052E0,3.0211813E2,8.119897E0,5.4775696E0,5.109518E0,8.867446E1,3.929294E1,2.979713E2,1.7066873E2,1.8406558E2,2.4942522E1,3.9841376E2,6.3469714E2,1.0010851E3,8.895216E2,8.210504E1,3.246123E2,4.3871497E2,5.2169514E0,3.416656E2,1.30502E2,4.8218192E2,5.8463326E0,1.15991844E2,6.838869E0,2.3991617E1,1.157216E1,5.2560463E1,7.0243354E0,8.566295E2,3.5383252E2,2.9637643E2,5.7416987E0,7.338957E1,1.5284888E1,7.387589E0,3.1905348E1,2.5277429E2,4.519703E1,1.5873073E2,1.193801E1,6.138124E1,1.2268434E2,1.4067164E1,1.0875358E1,1.7367696E2,2.2473682E2,4.8870837E2,1.4598878E2,1.8214145E2,8.1894366E2,6.135929E2,2.7592874E2,2.5471884E1,5.663316E1,1.8084586E2,1.4376643E2,7.5511185E1,3.6320377E2,3.2136925E1,3.0952866E2,9.869955E1,3.1802448E1,1.1255646E2,3.6962546E2,4.208272E1,7.390912E1,9.148307E0,1.4843309E1,5.5922375E0,5.9799223E0,4.401981E1,8.54065E0,8.4363617E2,1.2993305E1,8.834177E0,3.4499835E2],"tree_param":{"num_deleted":"0","num_feature":"34","num_nodes":"107","size_leaf_vector":"1"}},{"base_weights":[6.26532E-3,-4.6565E-1,7.5441754E-1,-7.549438E-2,-6.4905035E-1,3.809899E-1,1.1827035E0,4.559019E-1,-2.3045897E-1,-7.527438E-1,-1.7975712E-1,1.5829486E-1,7.1286064E-1,1.2050031E0,6.5445733E-1,3.603232E-1,1.117667E0,-1.10028416E-1,-3.965347E-1,-4.7110382E-1,-8.439545E-1,8.135517E-3,-4.7675264E-1,3.0887395E-1,-1.8895668E-1,7.6957166E-1,7.081202E-2,1.2123233E0,-4.282275E-3,7.7592844E-1,-1.6207619E-2,3.933195E-1,-3.3775575E-2,8.0695164E-1,6.9733456E-2,-2.2682537E-1,4.0879893E-1,-3.0839756E-1,-1.3211262E0,-7.959546E-1,-3.5922903E-1,-4.4051933E-1,-9.371171E-1,-8.509901E-2,8.057738E-1,-8.0067444E-1,-1.1920052E-1,3.4498483E-1,-3.7007296E-1,-6.2311172E-2,-9.011142E-1,6.6186804E-1,9.9428415E-1,3.4310424E-1,-8.748501E-2,1.291543E0,1.147161E0,-1.7351311E-3,9.4110644E-1,2.1128206E-2,-3.7162673E-2,5.4538734E-2,2.718389E-2,-6.468959E-3,-3.1783666E-2,-1.1634304E-2,3.360949E-2,-1.3790677E-2,-7.124826E-2,-0E0,-7.768265E-2,-2.289297E-2,-5.084605E-2,1.1967695E-3,-2.5736814E-2,-1.3588895E-2,-3.8591318E-2,-5.1684577E-2,-3.716516E-2,2.093506E-2,-9.62419E-3,-1.0209173E-2,5.6505736E-2,-1.2831618E-2,-5.139189E-2,5.646016E-2,-1.8221483E-2,2.5455132E-2,6.493062E-3,-7.313484E-2,1.2042816E-2,-7.4020424E-3,4.233233E-2,-8.638479E-2,-3.1220114E-2,3.7672766E-2,1.4923269E-2,2.8925529E-2,5.3410184E-2,-1.0399715E-2,3.9972126E-2,6.51142E-2,1.2709992E-2,5.7786416E-2,8.144404E-3,2.7859626E-2,5.971355E-2],"categories":[],"categories_nodes":[],"categories_segments":[],"categories_sizes":[],"default_left":[0,0,0,0,0,0,0,0,0,0,0,0,0,0,0,0,0,0,0,0,0,0,0,0,0,0,0,0,0,0,0,0,0,0,0,0,0,0,0,0,0,0,0,0,0,0,0,0,0,0,0,0,0,0,0,0,0,0,0,0,0,0,0,0,0,0,0,0,0,0,0,0,0,0,0,0,0,0,0,0,0,0,0,0,0,0,0,0,0,0,0,0,0,0,0,0,0,0,0,0,0,0,0,0,0,0,0],"id":7,"left_children":[1,3,5,7,9,11,13,15,17,19,21,23,25,27,29,31,33,35,37,39,41,43,45,47,49,51,53,55,-1,57,-1,59,-1,61,-1,63,65,67,69,71,73,75,77,79,81,83,85,87,89,91,93,95,97,99,-1,101,103,-1,105,-1,-1,-1,-1,-1,-1,-1,-1,-1,-1,-1,-1,-1,-1,-1,-1,-1,-1,-1,-1,-1,-1,-1,-1,-1,-1,-1,-1,-1,-1,-1,-1,-1,-1,-1,-1,-1,-1,-1,-1,-1,-1,-1,-1,-1,-1,-1,-1],"loss_changes":[2.5887415E3,3.215901E2,4.5298193E2,1.1857709E2,1.4858533E2,1.11892044E2,1.457959E1,2.0010574E1,2.2204033E1,6.3799194E1,3.101639E1,4.760612E1,2.2020721E1,1.217334E1,6.936157E0,1.0000828E1,2.133068E0,3.9340702E1,3.755906E1,2.1953873E1,7.048657E1,2.547461E1,2.4742348E1,1.56864395E1,2.468586E1,1.2704102E1,2.5560902E1,4.7713623E0,0E0,6.827814E0,0E0,9.507824E0,0E0,8.569927E-1,0E0,2.0945501E1,2.0351965E1,1.5029636E1,1.2434868E1,1.1080452E1,2.7446766E1,1.962516E1,2.7773438E1,1.6601894E1,1.2069883E1,1.3525269E1,3.2062187E1,2.1170197E1,2.2099052E1,1.8368458E1,8.152184E0,1.2355377E1,4.712799E0,1.152534E1,0E0,5.7460938E0,5.5842896E0,0E0,3.2156792E0,0E0,0E0,0E0,0E0,0E0,0E0,0E0,0E0,0E0,0E0,0E0,0E0,0E0,0E0,0E0,0E0,0E0,0E0,0E0,0E0,0E0,0E0,0E0,0E0,0E0,0E0,0E0,0E0,0E0,0E0,0E0,0E0,0E0,0E0,0E0,0E0,0E0,0E0,0E0,0E0,0E0,0E0,0E0,0E0,0E0,0E0,0E0,0E0],"parents":[2147483647,0,0,1,1,2,2,3,3,4,4,5,5,6,6,7,7,8,8,9,9,10,10,11,11,12,12,13,13,14,14,15,15,16,16,17,17,18,18,19,19,20,20,21,21,22,22,23,23,24,24,25,25,26,26,27,27,29,29,31,31,33,33,35,35,36,36,37,37,38,38,39,39,40,40,41,41,42,42,43,43,44,44,45,45,46,46,47,47,48,48,49,49,50,50,51,51,52,52,53,53,55,55,56,56,58,58],"right_children":[2,4,6,8,10,12,14,16,18,20,22,24,26,28,30,32,34,36,38,40,42,44,46,48,50,52,54,56,-1,58,-1,60,-1,62,-1,64,66,68,70,72,74,76,78,80,82,84,86,88,90,92,94,96,98,100,-1,102,104,-1,106,-1,-1,-1,-1,-1,-1,-1,-1,-1,-1,-1,-1,-1,-1,-1,-1,-1,-1,-1,-1,-1,-1,-1,-1,-1,-1,-1,-1,-1,-1,-1,-1,-1,-1,-1,-1,-1,-1,-1,-1,-1,-1,-1,-1,-1,-1,-1,-1],"split_conditions":[2E0,1.3333334E3,2E0,5.7E1,9.5504546E-1,3E0,7.021764E-1,5E1,8.26E3,3.69E3,5E3,3.001E3,5.701E3,1E0,3.005E3,3.9E1,5.7E1,0E0,2.1E5,-1E0,8E4,5.8E3,1.7206617E5,3.1E5,2.4E5,5E0,6.431466E-2,6.3984E-1,-4.282275E-3,5.1E2,-1.6207619E-2,1.23E2,-3.3775575E-2,5.2E1,6.9733456E-2,8E2,5.4E1,5.6E1,0E0,1.76E-3,4E2,2.506E3,5.1805E-1,1.64E3,2.279E3,2.009E3,6.6776665E3,1.6429E4,0E0,1.54188E5,2.8E5,2.009E3,2.5212917E-1,1.12976E5,-8.748501E-2,4E0,6.2E1,-1.7351311E-3,3.6E1,2.1128206E-2,-3.7162673E-2,5.4538734E-2,2.718389E-2,-6.468959E-3,-3.1783666E-2,-1.1634304E-2,3.360949E-2,-1.3790677E-2,-7.124826E-2,-0E0,-7.768265E-2,-2.289297E-2,-5.084605E-2,1.1967695E-3,-2.5736814E-2,-1.3588895E-2,-3.8591318E-2,-5.1684577E-2,-3.716516E-2,2.093506E-2,-9.62419E-3,-1.0209173E-2,5.6505736E-2,-1.2831618E-2,-5.139189E-2,5.646016E-2,-1.8221483E-2,2.5455132E-2,6.493062E-3,-7.313484E-2,1.2042816E-2,-7.4020424E-3,4.233233E-2,-8.638479E-2,-3.1220114E-2,3.7672766E-2,1.4923269E-2,2.8925529E-2,5.3410184E-2,-1.0399715E-2,3.9972126E-2,6.51142E-2,1.2709992E-2,5.7786416E-2,8.144404E-3,2.7859626E-2,5.971355E-2],"split_indices":[21,24,2,23,25,22,26,1,8,8,15,14,15,31,15,14,1,5,0,2,0,17,23,0,0,22,26,25,0,14,0,8,0,1,0,16,19,1,13,25,19,15,25,15,14,19,24,8,5,8,0,19,25,10,0,3,1,0,1,0,0,0,0,0,0,0,0,0,0,0,0,0,0,0,0,0,0,0,0,0,0,0,0,0,0,0,0,0,0,0,0,0,0,0,0,0,0,0,0,0,0,0,0,0,0,0,0],"split_type":[0,0,0,0,0,0,0,0,0,0,0,0,0,0,0,0,0,0,0,0,0,0,0,0,0,0,0,0,0,0,0,0,0,0,0,0,0,0,0,0,0,0,0,0,0,0,0,0,0,0,0,0,0,0,0,0,0,0,0,0,0,0,0,0,0,0,0,0,0,0,0,0,0,0,0,0,0,0,0,0,0,0,0,0,0,0,0,0,0,0,0,0,0,0,0,0,0,0,0,0,0,0,0,0,0,0,0],"sum_hessian":[7.330129E3,4.4950254E3,2.8351033E3,1.4379558E3,3.0570698E3,1.5156836E3,1.3194198E3,3.240734E2,1.1138824E3,2.5031624E3,5.539074E2,9.0810004E2,6.0758356E2,1.2645663E3,5.4853462E1,2.8465613E2,3.9417274E1,6.469838E2,4.6689856E2,6.141266E2,1.8890358E3,3.3965952E2,2.1424788E2,6.337045E2,2.7439554E2,5.579468E2,4.9636795E1,1.2575718E3,6.994473E0,4.9071674E1,5.7817845E0,2.765631E2,8.093031E0,2.059259E1,1.8824684E1,5.2871625E2,1.1826757E2,4.275809E2,3.931765E1,1.5552379E2,4.5860278E2,3.5566248E2,1.5333733E3,3.0479993E2,3.4859585E1,1.11613464E2,1.0263442E2,6.0230896E2,3.139559E1,2.3400882E2,4.0386703E1,3.8013858E2,1.7780821E2,4.3932343E1,5.7044535E0,5.583796E2,6.991922E2,8.337732E0,4.0733944E1,2.7032373E2,6.239376E0,8.214249E0,1.2378342E1,4.282151E2,1.0050119E2,3.4348698E1,8.391888E1,4.167556E2,1.0825305E1,6.013658E0,3.3303993E1,6.286314E1,9.2660645E1,1.3245108E2,3.261517E2,2.3705013E2,1.1861236E2,1.02018286E3,5.131905E2,5.2880157E1,2.5191977E2,8.488767E0,2.6370817E1,3.3633427E1,7.7980034E1,1.6192049E1,8.6442375E1,3.406191E2,2.6168982E2,1.0817813E1,2.0577778E1,2.1470569E2,1.9303131E1,8.723428E0,3.1663277E1,3.0254147E2,7.7597115E1,2.837682E1,1.494314E2,2.0047266E1,2.3885077E1,5.5230896E2,6.0706134E0,6.928854E2,6.306858E0,1.7615961E1,2.3117983E1],"tree_param":{"num_deleted":"0","num_feature":"34","num_nodes":"107","size_leaf_vector":"1"}},{"base_weights":[6.0519944E-3,-5.082716E-1,6.327105E-1,-3.3835953E-1,-7.118948E-1,3.2179826E-1,1.1157783E0,-3.055965E-2,-4.264123E-1,-8.5811204E-1,-3.775801E-1,1.9491635E-1,8.4493184E-1,5.373339E-1,1.145699E0,-1.16090216E-1,3.677036E-1,-2.5778252E-1,-6.4966005E-1,-5.606111E-1,-1.0329853E0,-4.5456582E-1,2.0876205E-1,2.9726905E-1,-1.3727735E-1,9.0788E-1,4.5309976E-1,1.0370195E0,-1.3766166E-2,1.1529882E0,-4.563063E-3,-1.7980441E-1,5.2560127E-1,6.565737E-1,-2.0708336E-2,-4.7499186E-1,-1.4324057E-1,-4.2308035E-1,-9.8967725E-1,-4.070141E-1,-9.6009696E-1,-1.0657818E0,-3.6540872E-1,-3.9447787E-1,-1.0892253E0,4.6893996E-1,-5.9628296E-1,3.101988E-1,-7.312442E-2,-2.9243264E-1,2.91256E-1,9.67366E-1,6.073573E-1,5.3427154E-3,1.107723E0,1.1949733E0,1.4610124E-2,-2.9650706E-1,5.2165747E-2,1.1631585E0,5.891029E-1,9.957845E-3,-1.5513581E-2,4.0364448E-2,-2.3314377E-2,1.6632643E-2,5.881038E-2,2.7212692E-2,-3.9570954E-2,-1.3163454E-2,-4.615405E-2,-5.8879167E-2,-5.7572485E-3,-1.8692372E-2,-6.5592915E-2,-2.655283E-2,-5.3831052E-2,-2.9441718E-2,-7.4973456E-3,-6.357974E-2,-2.9776964E-2,-4.5409415E-2,-6.0306843E-2,2.0649737E-2,-4.346475E-2,-2.1637505E-2,4.469228E-2,8.0152723E-4,-6.6231154E-2,-2.983216E-2,3.184895E-2,-7.449837E-2,-7.993763E-6,1.8237833E-2,-3.128316E-3,-9.895819E-3,-5.174557E-2,4.2695715E-3,4.591922E-2,4.300436E-2,5.7701577E-2,1.8252729E-2,6.255596E-2,-1.9927792E-2,6.910653E-2,6.888293E-2,2.3515448E-2,3.9538827E-2,6.62951E-2,-4.236616E-2,1.2498291E-2,1.9014858E-2,5.8457322E-2,4.673628E-2,6.994386E-3],"categories":[],"categories_nodes":[],"categories_segments":[],"categories_sizes":[],"default_left":[0,0,0,0,0,0,0,0,0,0,0,0,0,0,0,0,0,0,0,0,0,0,0,0,0,0,0,0,0,0,0,0,0,0,0,0,0,0,0,0,0,0,0,0,0,0,0,0,0,0,0,0,0,0,0,0,0,0,0,0,0,0,0,0,0,0,0,0,0,0,0,0,0,0,0,0,0,0,0,0,0,0,0,0,0,0,0,0,0,0,0,0,0,0,0,0,0,0,0,0,0,0,0,0,0,0,0,0,0,0,0,0,0,0,0],"id":8,"left_children":[1,3,5,7,9,11,13,15,17,19,21,23,25,27,29,31,33,35,37,39,41,43,45,47,49,51,53,55,57,59,-1,61,63,65,67,69,71,73,75,77,79,81,83,85,87,89,91,93,-1,95,97,99,101,103,105,107,-1,109,-1,111,113,-1,-1,-1,-1,-1,-1,-1,-1,-1,-1,-1,-1,-1,-1,-1,-1,-1,-1,-1,-1,-1,-1,-1,-1,-1,-1,-1,-1,-1,-1,-1,-1,-1,-1,-1,-1,-1,-1,-1,-1,-1,-1,-1,-1,-1,-1,-1,-1,-1,-1,-1,-1,-1,-1],"loss_changes":[2.3449607E3,1.3790271E2,4.920813E2,5.9036118E1,8.8344666E1,1.3228096E2,2.1434814E1,1.6583931E1,6.355487E1,6.495538E1,2.5158783E1,5.475064E1,9.055817E0,1.8067192E1,1.120752E1,1.6467962E1,9.727931E0,2.3943008E1,5.556424E1,2.8303345E1,1.6848572E1,1.813845E1,1.3863306E1,2.8330765E1,2.5307442E1,5.2301636E0,1.6328533E1,3.5368996E0,9.765885E0,6.093628E0,0E0,1.8166775E1,1.0570104E1,7.7906513E0,1.6787117E1,3.1262161E1,1.8195488E1,1.8554672E1,1.0846985E1,1.5789959E1,1.3769806E1,1.5415894E1,1.5638437E1,2.2531548E1,1.1010807E1,9.285508E0,8.481907E0,2.4908516E1,0E0,1.9263445E1,1.2882061E1,4.3539124E0,8.458876E0,1.978604E1,3.0719776E0,2.1425629E-1,0E0,8.101742E0,0E0,4.9782715E0,3.4388285E0,0E0,0E0,0E0,0E0,0E0,0E0,0E0,0E0,0E0,0E0,0E0,0E0,0E0,0E0,0E0,0E0,0E0,0E0,0E0,0E0,0E0,0E0,0E0,0E0,0E0,0E0,0E0,0E0,0E0,0E0,0E0,0E0,0E0,0E0,0E0,0E0,0E0,0E0,0E0,0E0,0E0,0E0,0E0,0E0,0E0,0E0,0E0,0E0,0E0,0E0,0E0,0E0,0E0,0E0],"parents":[2147483647,0,0,1,1,2,2,3,3,4,4,5,5,6,6,7,7,8,8,9,9,10,10,11,11,12,12,13,13,14,14,15,15,16,16,17,17,18,18,19,19,20,20,21,21,22,22,23,23,24,24,25,25,26,26,27,27,28,28,29,29,31,31,32,32,33,33,34,34,35,35,36,36,37,37,38,38,39,39,40,40,41,41,42,42,43,43,44,44,45,45,46,46,47,47,49,49,50,50,51,51,52,52,53,53,54,54,55,55,57,57,59,59,60,60],"right_children":[2,4,6,8,10,12,14,16,18,20,22,24,26,28,30,32,34,36,38,40,42,44,46,48,50,52,54,56,58,60,-1,62,64,66,68,70,72,74,76,78,80,82,84,86,88,90,92,94,-1,96,98,100,102,104,106,108,-1,110,-1,112,114,-1,-1,-1,-1,-1,-1,-1,-1,-1,-1,-1,-1,-1,-1,-1,-1,-1,-1,-1,-1,-1,-1,-1,-1,-1,-1,-1,-1,-1,-1,-1,-1,-1,-1,-1,-1,-1,-1,-1,-1,-1,-1,-1,-1,-1,-1,-1,-1,-1,-1,-1,-1,-1,-1],"split_conditions":[1E0,3E3,2E0,1.0735E3,8.5265E-1,4E0,0E0,4.6E1,3.076923E3,1.52175E4,2.93875E5,3.001E3,4.052E3,1.88E2,1E0,2.9375E-2,1E0,5.7555E-1,3.905E3,5.003E3,2.29577E5,1E4,1.401E4,1E0,6.666667E-1,3.5E3,1.23978E5,4.95E2,4.9E1,1.664E4,-4.563063E-3,5.7E1,4E2,3.79E2,3.26E2,1.5535E4,6.3746665E3,4.9015E4,1.268E3,1E0,1.0055E4,1E0,9.466E3,3.0454E4,3.005E3,5.4E3,9.7848E-1,3.002E3,-7.312442E-2,9.117647E3,6.054E3,1.4E3,7.8794E4,3E0,5.701E3,7.268E-3,1.4610124E-2,4.5833335E3,5.2165747E-2,4.16E2,3.005E3,9.957845E-3,-1.5513581E-2,4.0364448E-2,-2.3314377E-2,1.6632643E-2,5.881038E-2,2.7212692E-2,-3.9570954E-2,-1.3163454E-2,-4.615405E-2,-5.8879167E-2,-5.7572485E-3,-1.8692372E-2,-6.5592915E-2,-2.655283E-2,-5.3831052E-2,-2.9441718E-2,-7.4973456E-3,-6.357974E-2,-2.9776964E-2,-4.5409415E-2,-6.0306843E-2,2.0649737E-2,-4.346475E-2,-2.1637505E-2,4.469228E-2,8.0152723E-4,-6.6231154E-2,-2.983216E-2,3.184895E-2,-7.449837E-2,-7.993763E-6,1.8237833E-2,-3.128316E-3,-9.895819E-3,-5.174557E-2,4.2695715E-3,4.591922E-2,4.300436E-2,5.7701577E-2,1.8252729E-2,6.255596E-2,-1.9927792E-2,6.910653E-2,6.888293E-2,2.3515448E-2,3.9538827E-2,6.62951E-2,-4.236616E-2,1.2498291E-2,1.9014858E-2,5.8457322E-2,4.673628E-2,6.994386E-3],"split_indices":[21,14,2,23,25,22,4,1,27,23,9,14,14,12,31,25,28,25,9,18,12,16,16,31,20,15,12,9,1,18,0,23,18,16,16,10,23,12,14,29,18,32,18,17,15,18,25,17,0,27,18,17,12,6,15,25,0,27,0,9,15,0,0,0,0,0,0,0,0,0,0,0,0,0,0,0,0,0,0,0,0,0,0,0,0,0,0,0,0,0,0,0,0,0,0,0,0,0,0,0,0,0,0,0,0,0,0,0,0,0,0,0,0,0,0],"split_type":[0,0,0,0,0,0,0,0,0,0,0,0,0,0,0,0,0,0,0,0,0,0,0,0,0,0,0,0,0,0,0,0,0,0,0,0,0,0,0,0,0,0,0,0,0,0,0,0,0,0,0,0,0,0,0,0,0,0,0,0,0,0,0,0,0,0,0,0,0,0,0,0,0,0,0,0,0,0,0,0,0,0,0,0,0,0,0,0,0,0,0,0,0,0,0,0,0,0,0,0,0,0,0,0,0,0,0,0,0,0,0,0,0,0,0],"sum_hessian":[7.273553E3,3.9948503E3,3.2787031E3,2.1794097E3,1.8154406E3,1.9959454E3,1.2827578E3,4.853364E2,1.6940732E3,1.2617366E3,5.53704E2,1.6075988E3,3.8834665E2,6.418558E1,1.2185721E3,4.0032306E2,8.501333E1,9.665751E2,7.274982E2,4.6886465E2,7.9287195E2,4.8979062E2,6.3913357E1,1.2292568E3,3.7834198E2,3.3323926E2,5.510738E1,3.3295807E1,3.0889769E1,1.2115813E3,6.9909086E0,3.649613E2,3.5361744E1,4.8505684E1,3.6507645E1,3.3233612E2,6.342389E2,4.3809805E2,2.8940018E2,3.4029492E2,1.2856972E2,7.550327E2,3.783925E1,4.4905438E2,4.0736214E1,4.871209E1,1.5201266E1,1.2211649E3,8.091912E0,2.7817615E2,1.00165825E2,2.7604648E2,5.7192787E1,3.341364E1,2.1693739E1,2.6860779E1,6.435028E0,2.5013445E1,5.876323E0,1.188898E3,2.2683313E1,9.313729E1,2.71824E2,2.7763952E1,7.5977902E0,3.1008638E1,1.7497047E1,2.1160337E1,1.5347307E1,2.269246E2,1.0541152E2,1.5596047E1,6.186429E2,4.165565E2,2.1541567E1,4.7436268E1,2.419639E2,1.9833537E2,1.4195956E2,6.784065E1,6.0729065E1,3.595292E2,3.955035E2,1.486214E1,2.2977108E1,4.3681952E2,1.2234886E1,7.241679E0,3.3494534E1,6.2068663E0,4.2505222E1,5.4154525E0,9.785814E0,1.0655072E3,1.5565767E2,2.4800659E2,3.0169565E1,7.638642E1,2.3779406E1,1.7920103E2,9.684544E1,4.280427E1,1.4388514E1,2.6327896E1,7.085745E0,1.4313833E1,7.3799067E0,8.481283E0,1.8379496E1,1.2274178E1,1.2739267E1,9.641025E0,1.179257E3,1.2083191E1,1.06001215E1],"tree_param":{"num_deleted":"0","num_feature":"34","num_nodes":"115","size_leaf_vector":"1"}},{"base_weights":[7.1077105E-3,-4.1913345E-1,6.9087625E-1,-1.5722757E-2,-5.714966E-1,3.6614358E-1,1.0780432E0,2.9769075E-1,-1.4713888E-1,-6.7885125E-1,-2.912821E-1,1.2493399E-1,6.223959E-1,2.9326114E-1,1.0954515E0,4.480515E-1,-2.3028487E-1,-4.4415432E-1,-5.412981E-2,-3.976263E-1,-8.1738484E-1,-4.548914E-1,-8.256915E-2,3.4147096E-1,-7.0416756E-2,6.566011E-1,-8.7070525E-1,-8.821239E-2,6.9350016E-1,1.1109766E0,5.5982727E-1,3.6137217E-1,6.77464E-2,-1.2439629E0,-1.6916623E-2,-7.0338583E-1,-1.3987276E-1,1.03963435E-1,-2.851118E-1,-3.182934E-1,-6.67846E-1,-2.162622E-1,-9.1016793E-1,1.10895164E-1,-5.3187245E-1,-3.6989173E-1,6.1113376E-2,3.8058195E-1,-5.182947E-2,-1.3836956E-1,7.288583E-1,7.096254E-1,1.5287541E-1,-8.4823884E-2,-9.975502E-4,2.7852789E-2,-6.0201317E-2,1.1870421E-2,5.866787E-2,1.1182976E0,7.039295E-3,-7.0689404E-3,6.9291514E-1,1.2729284E-2,3.6558505E-2,-3.399736E-2,-7.8608796E-2,1.1673389E-2,-3.1652473E-2,-4.4174965E-2,7.973795E-3,-2.5846364E-5,-5.699438E-2,1.2101201E-2,-1.5432486E-2,-4.095538E-2,-3.4903158E-3,-3.3408873E-2,-1.1057075E-2,-3.8254827E-2,1.8923752E-2,-3.82967E-3,-3.7490074E-2,-2.3794325E-2,-4.800317E-2,-3.7777025E-2,3.884986E-2,-1.8243734E-2,-3.7910562E-2,-7.047519E-2,-1.3020408E-2,2.7328435E-2,-3.7575073E-3,2.0585774E-2,-4.4366807E-2,-1.6079921E-3,-3.8794126E-2,-9.192943E-3,6.2868334E-2,2.9180175E-2,4.6494883E-2,-5.3383615E-2,1.9513482E-2,5.2459516E-2,6.0500033E-2,2.0512894E-2,6.0773294E-2],"categories":[],"categories_nodes":[],"categories_segments":[],"categories_sizes":[],"default_left":[0,0,0,0,0,0,0,0,0,0,0,0,0,0,0,0,0,0,0,0,0,0,0,0,0,0,0,0,0,0,0,0,0,0,0,0,0,0,0,0,0,0,0,0,0,0,0,0,0,0,0,0,0,0,0,0,0,0,0,0,0,0,0,0,0,0,0,0,0,0,0,0,0,0,0,0,0,0,0,0,0,0,0,0,0,0,0,0,0,0,0,0,0,0,0,0,0,0,0,0,0,0,0,0,0,0,0],"id":9,"left_children":[1,3,5,7,9,11,13,15,17,19,21,23,25,27,29,31,33,35,37,39,41,43,45,47,49,51,53,55,57,59,61,63,-1,65,67,69,71,73,75,77,79,81,83,85,87,89,91,93,-1,95,97,99,101,-1,-1,-1,-1,-1,-1,103,-1,-1,105,-1,-1,-1,-1,-1,-1,-1,-1,-1,-1,-1,-1,-1,-1,-1,-1,-1,-1,-1,-1,-1,-1,-1,-1,-1,-1,-1,-1,-1,-1,-1,-1,-1,-1,-1,-1,-1,-1,-1,-1,-1,-1,-1,-1],"loss_changes":[2.1075967E3,2.7372327E2,3.48588E2,5.037527E1,9.6963135E1,9.3297E1,1.6835815E1,2.8801975E1,2.3742859E1,9.058179E1,3.0557655E1,3.3056065E1,3.7966736E1,4.5439873E0,9.506226E0,2.1478317E1,1.7282124E1,1.6003273E1,2.407358E1,1.6266457E1,8.693213E1,2.1993904E1,1.639751E1,2.0296238E1,2.2352272E1,1.8952179E1,1.1577413E1,1.1959491E1,2.726511E0,8.254028E0,3.6127071E0,9.924892E0,0E0,1.2821255E0,1.0626708E1,1.7367199E1,1.3239053E1,2.2345863E1,3.0651062E1,2.0158352E1,1.8065163E1,1.5554117E1,2.8751831E1,3.5720375E1,1.6347198E1,1.4530491E1,1.7587927E1,1.4570049E1,0E0,2.5593248E1,1.5886143E1,1.7297394E1,2.055227E1,0E0,0E0,0E0,0E0,0E0,0E0,6.0634766E0,0E0,0E0,3.9836016E0,0E0,0E0,0E0,0E0,0E0,0E0,0E0,0E0,0E0,0E0,0E0,0E0,0E0,0E0,0E0,0E0,0E0,0E0,0E0,0E0,0E0,0E0,0E0,0E0,0E0,0E0,0E0,0E0,0E0,0E0,0E0,0E0,0E0,0E0,0E0,0E0,0E0,0E0,0E0,0E0,0E0,0E0,0E0,0E0],"parents":[2147483647,0,0,1,1,2,2,3,3,4,4,5,5,6,6,7,7,8,8,9,9,10,10,11,11,12,12,13,13,14,14,15,15,16,16,17,17,18,18,19,19,20,20,21,21,22,22,23,23,24,24,25,25,26,26,27,27,28,28,29,29,30,30,31,31,33,33,34,34,35,35,36,36,37,37,38,38,39,39,40,40,41,41,42,42,43,43,44,44,45,45,46,46,47,47,49,49,50,50,51,51,52,52,59,59,62,62],"right_children":[2,4,6,8,10,12,14,16,18,20,22,24,26,28,30,32,34,36,38,40,42,44,46,48,50,52,54,56,58,60,62,64,-1,66,68,70,72,74,76,78,80,82,84,86,88,90,92,94,-1,96,98,100,102,-1,-1,-1,-1,-1,-1,104,-1,-1,106,-1,-1,-1,-1,-1,-1,-1,-1,-1,-1,-1,-1,-1,-1,-1,-1,-1,-1,-1,-1,-1,-1,-1,-1,-1,-1,-1,-1,-1,-1,-1,-1,-1,-1,-1,-1,-1,-1,-1,-1,-1,-1,-1,-1],"split_conditions":[2E0,1.1115E3,2E0,5.3833332E1,8.466333E-1,2E0,5.026087E-3,5.5555557E-4,-1E0,5.577E3,1E0,1.7091E4,3.6E5,4E1,4E0,5.4E1,9.16E2,2.74E2,8.766E3,0E0,6E4,1.6E3,9.5504546E-1,1E4,1.71592E5,5.822E3,5E-1,1E3,9.685E2,1E0,7.9145E-1,3.3E5,6.77464E-2,3.23E2,1.1347E4,3.2E5,1.201E3,5.909091E3,4.24E-1,-1.8333334E0,3.1238096E0,3E3,1.34E3,2.0337E4,4.3088235E-2,1.681E3,9.7026664E-1,1.0666667E4,-5.182947E-2,1.9E5,9.077111E-1,2E0,9E4,-8.4823884E-2,-9.975502E-4,2.7852789E-2,-6.0201317E-2,1.1870421E-2,5.866787E-2,2E0,7.039295E-3,-7.0689404E-3,3E3,1.2729284E-2,3.6558505E-2,-3.399736E-2,-7.8608796E-2,1.1673389E-2,-3.1652473E-2,-4.4174965E-2,7.973795E-3,-2.5846364E-5,-5.699438E-2,1.2101201E-2,-1.5432486E-2,-4.095538E-2,-3.4903158E-3,-3.3408873E-2,-1.1057075E-2,-3.8254827E-2,1.8923752E-2,-3.82967E-3,-3.7490074E-2,-2.3794325E-2,-4.800317E-2,-3.7777025E-2,3.884986E-2,-1.8243734E-2,-3.7910562E-2,-7.047519E-2,-1.3020408E-2,2.7328435E-2,-3.7575073E-3,2.0585774E-2,-4.4366807E-2,-1.6079921E-3,-3.8794126E-2,-9.192943E-3,6.2868334E-2,2.9180175E-2,4.6494883E-2,-5.3383615E-2,1.9513482E-2,5.2459516E-2,6.0500033E-2,2.0512894E-2,6.0773294E-2],"split_indices":[21,24,2,24,25,3,25,25,4,9,28,8,0,1,3,1,8,19,8,7,0,15,25,15,9,15,20,13,24,31,25,0,0,8,8,0,18,27,25,20,26,15,12,12,26,14,25,27,0,0,25,6,0,0,0,0,0,0,0,7,0,0,27,0,0,0,0,0,0,0,0,0,0,0,0,0,0,0,0,0,0,0,0,0,0,0,0,0,0,0,0,0,0,0,0,0,0,0,0,0,0,0,0,0,0,0,0],"split_type":[0,0,0,0,0,0,0,0,0,0,0,0,0,0,0,0,0,0,0,0,0,0,0,0,0,0,0,0,0,0,0,0,0,0,0,0,0,0,0,0,0,0,0,0,0,0,0,0,0,0,0,0,0,0,0,0,0,0,0,0,0,0,0,0,0,0,0,0,0,0,0,0,0,0,0,0,0,0,0,0,0,0,0,0,0,0,0,0,0,0,0,0,0,0,0,0,0,0,0,0,0,0,0,0,0,0,0],"sum_hessian":[7.2293228E3,4.4534277E3,2.7758948E3,1.2213715E3,3.2320564E3,1.5108702E3,1.2650245E3,3.6023145E2,8.6113995E2,2.3355068E3,8.965495E2,7.79246E2,7.316243E2,2.7964275E1,1.2370603E3,2.806474E2,7.958405E1,2.0419917E2,6.569408E2,7.7230695E2,1.5632E3,5.016496E2,3.9489993E2,3.6947E2,4.0977594E2,7.1585223E2,1.5772112E1,1.4589021E1,1.3375255E1,1.2009888E3,3.607153E1,2.575404E2,2.3106989E1,1.2917293E1,6.666676E1,1.09376236E2,9.482294E1,3.9007498E2,2.668658E2,5.9899725E2,1.7330966E2,2.096071E2,1.3535929E3,5.9871723E1,4.4177786E2,1.3135345E2,2.6354648E2,3.6004782E2,9.422191E0,3.7854477E2,3.1231146E1,6.471257E2,6.872655E1,7.4394693E0,8.332643E0,9.504038E0,5.084983E0,7.7306333E0,5.6446214E0,1.1917402E3,9.248571E0,5.6243863E0,3.0447144E1,2.0135422E2,5.6186188E1,5.9937367E0,6.9235554E0,4.7729282E1,1.893748E1,9.056393E1,1.8812307E1,8.41911E1,1.0631831E1,2.9276984E2,9.730515E1,7.57424E1,1.9112341E2,1.2867577E2,4.703215E2,1.5890459E2,1.4405074E1,1.6717528E2,4.2431816E1,1.4078304E2,1.2128098E3,2.5899029E1,3.3972694E1,2.5597081E2,1.8580705E2,1.129673E1,1.20056725E2,5.7262966E1,2.062835E2,3.5215488E2,7.8929586E0,3.2552036E2,5.3024418E1,1.1622451E1,1.9608696E1,4.142365E2,2.3288918E2,1.0552551E1,5.8173992E1,6.873132E2,5.0442703E2,2.104175E1,9.405394E0],"tree_param":{"num_deleted":"0","num_feature":"34","num_nodes":"107","size_leaf_vector":"1"}},{"base_weights":[1.3016119E-3,-4.1307896E-1,6.5763366E-1,6.52675E-2,-5.274067E-1,3.5494936E-1,8.849624E-1,3.0283687E-1,-6.817744E-2,-3.1551507E-1,-6.3989246E-1,4.180754E-1,-3.6435854E-2,7.113357E-1,1.0148815E0,9.4335425E-1,2.3756467E-1,-3.379564E-1,9.560337E-2,-6.339725E-2,-3.6954704E-1,-2.8462055E-1,-7.345682E-1,5.0982845E-1,1.6821867E-1,2.270917E-1,-4.2375717E-1,7.230468E-1,-2.5904033E-2,1.0530322E0,6.827273E-1,5.8688372E-2,6.228952E-1,-9.2860475E-2,4.6262175E-1,6.718294E-2,-4.1126692E-1,6.749006E-2,5.2886415E-2,1.1690849E-1,-4.4733915E-1,-4.9936274E-1,-2.5750548E-1,-2.188782E-1,-1.2506136E0,-8.370218E-1,-3.637918E-1,5.8634377E-1,1.652371E-1,4.558608E-1,-1.9846213E-1,-6.162811E-1,4.0405416E-1,-1.4043782E0,-7.327525E-2,8.3233905E-1,6.287699E-1,3.6888322E-1,1.0691508E0,7.4323076E-1,-3.604449E-3,5.3319186E-3,5.784887E-2,-2.8241415E-2,5.5279657E-3,2.6623642E-2,2.6966275E-3,-2.5697727E-2,3.5100242E-3,-9.150852E-3,1.4324293E-2,-2.2093223E-2,1.6772343E-2,-3.0586986E-2,4.0321406E-2,-1.7023493E-2,-3.666487E-2,1.2195691E-2,-1.6682778E-2,-5.686864E-2,-9.142358E-3,-1.4934979E-2,-7.1640335E-2,-2.0244073E-2,-4.4678014E-2,-9.5543405E-3,-3.4911428E-2,3.1652298E-2,-1.5503821E-3,5.345123E-2,2.9645467E-4,2.7214779E-2,-2.49759E-2,3.6446333E-2,-1.6499503E-2,1.0719321E-2,-7.098573E-2,3.848655E-2,1.0496661E-3,-2.527648E-2,-8.675822E-2,-2.8396105E-2,2.6701117E-2,4.28619E-2,-2.3688927E-2,2.1738539E-2,4.2263012E-2,3.462704E-2,-9.290108E-3,5.4600287E-2,3.5674334E-2,4.1911054E-2,3.72363E-3],"categories":[],"categories_nodes":[],"categories_segments":[],"categories_sizes":[],"default_left":[0,0,0,0,0,0,0,0,0,0,0,0,0,0,0,0,0,0,0,0,0,0,0,0,0,0,0,0,0,0,0,0,0,0,0,0,0,0,0,0,0,0,0,0,0,0,0,0,0,0,0,0,0,0,0,0,0,0,0,0,0,0,0,0,0,0,0,0,0,0,0,0,0,0,0,0,0,0,0,0,0,0,0,0,0,0,0,0,0,0,0,0,0,0,0,0,0,0,0,0,0,0,0,0,0,0,0,0,0,0,0,0,0],"id":10,"left_children":[1,3,5,7,9,11,13,15,17,19,21,23,25,27,29,31,33,35,37,39,41,43,45,47,49,51,53,55,-1,57,59,-1,61,63,65,-1,67,-1,69,71,73,75,77,79,81,83,85,87,89,91,93,95,97,99,101,103,105,107,109,111,-1,-1,-1,-1,-1,-1,-1,-1,-1,-1,-1,-1,-1,-1,-1,-1,-1,-1,-1,-1,-1,-1,-1,-1,-1,-1,-1,-1,-1,-1,-1,-1,-1,-1,-1,-1,-1,-1,-1,-1,-1,-1,-1,-1,-1,-1,-1,-1,-1,-1,-1,-1,-1],"loss_changes":[1.9449786E3,2.3981049E2,1.9000781E2,2.6874456E1,8.403601E1,2.9429047E1,3.474109E1,1.2403118E1,2.4025137E1,1.6678726E1,7.738727E1,2.3325058E1,1.704261E1,1.0183044E1,1.0524231E1,1.1356144E0,2.0763586E1,2.57776E1,1.7901846E1,1.5210281E1,1.4511719E1,3.0565022E1,6.882953E1,1.9557632E1,2.9317469E1,1.503082E1,2.2999508E1,6.2743225E0,0E0,8.35022E0,4.5019073E0,0E0,3.5840821E0,1.098961E1,4.6456947E0,0E0,9.850689E0,0E0,1.8141977E1,1.8366966E1,1.4943684E1,1.7010178E1,2.092086E1,1.4821571E1,4.7372513E0,3.4383667E1,2.2689148E1,1.7715897E1,1.9696976E1,1.3423477E1,1.5112692E1,1.2104399E1,1.1487066E1,4.156044E0,1.5617006E1,1.04778595E1,1.4892395E1,3.809819E0,5.435913E0,5.5017395E0,0E0,0E0,0E0,0E0,0E0,0E0,0E0,0E0,0E0,0E0,0E0,0E0,0E0,0E0,0E0,0E0,0E0,0E0,0E0,0E0,0E0,0E0,0E0,0E0,0E0,0E0,0E0,0E0,0E0,0E0,0E0,0E0,0E0,0E0,0E0,0E0,0E0,0E0,0E0,0E0,0E0,0E0,0E0,0E0,0E0,0E0,0E0,0E0,0E0,0E0,0E0,0E0,0E0],"parents":[2147483647,0,0,1,1,2,2,3,3,4,4,5,5,6,6,7,7,8,8,9,9,10,10,11,11,12,12,13,13,14,14,15,15,16,16,17,17,18,18,19,19,20,20,21,21,22,22,23,23,24,24,25,25,26,26,27,27,29,29,30,30,32,32,33,33,34,34,36,36,38,38,39,39,40,40,41,41,42,42,43,43,44,44,45,45,46,46,47,47,48,48,49,49,50,50,51,51,52,52,53,53,54,54,55,55,56,56,57,57,58,58,59,59],"right_children":[2,4,6,8,10,12,14,16,18,20,22,24,26,28,30,32,34,36,38,40,42,44,46,48,50,52,54,56,-1,58,60,-1,62,64,66,-1,68,-1,70,72,74,76,78,80,82,84,86,88,90,92,94,96,98,100,102,104,106,108,110,112,-1,-1,-1,-1,-1,-1,-1,-1,-1,-1,-1,-1,-1,-1,-1,-1,-1,-1,-1,-1,-1,-1,-1,-1,-1,-1,-1,-1,-1,-1,-1,-1,-1,-1,-1,-1,-1,-1,-1,-1,-1,-1,-1,-1,-1,-1,-1,-1,-1,-1,-1,-1,-1],"split_conditions":[2E0,6.993333E2,6.666667E-1,5.7E1,2.9032258E3,2E0,1.3333334E0,1.02040814E3,-1.1666666E0,8.333333E2,2.049E3,3.1E3,2.5492E4,1.0223589E0,6E3,1E0,2E5,5.714286E2,-1.5E2,8.766E-1,2.7518666E4,2.1074666E4,8.5265E-1,5.609756E3,8.9114256E-2,5.5E2,6.302591E-1,2.3933E4,-2.5904033E-2,7.8E2,3E0,5.8688372E-2,7.894737E2,0E0,1.125E4,6.718294E-2,3.1E5,6.749006E-2,1.2E2,2.538E3,2.9138E4,1.424E4,3.5515E4,3.9E2,4.25E3,6.12E2,4.374836E-2,2E0,1.5E2,2E0,3E4,5.348333E2,1E0,1.866E3,5E3,5.3E3,6.3883E4,4E0,4E0,9.6064E-1,-3.604449E-3,5.3319186E-3,5.784887E-2,-2.8241415E-2,5.5279657E-3,2.6623642E-2,2.6966275E-3,-2.5697727E-2,3.5100242E-3,-9.150852E-3,1.4324293E-2,-2.2093223E-2,1.6772343E-2,-3.0586986E-2,4.0321406E-2,-1.7023493E-2,-3.666487E-2,1.2195691E-2,-1.6682778E-2,-5.686864E-2,-9.142358E-3,-1.4934979E-2,-7.1640335E-2,-2.0244073E-2,-4.4678014E-2,-9.5543405E-3,-3.4911428E-2,3.1652298E-2,-1.5503821E-3,5.345123E-2,2.9645467E-4,2.7214779E-2,-2.49759E-2,3.6446333E-2,-1.6499503E-2,1.0719321E-2,-7.098573E-2,3.848655E-2,1.0496661E-3,-2.527648E-2,-8.675822E-2,-2.8396105E-2,2.6701117E-2,4.28619E-2,-2.3688927E-2,2.1738539E-2,4.2263012E-2,3.462704E-2,-9.290108E-3,5.4600287E-2,3.5674334E-2,4.1911054E-2,3.72363E-3],"split_indices":[21,24,20,23,27,7,20,27,20,27,8,14,8,26,14,28,0,27,12,25,23,23,25,27,26,13,25,12,0,13,5,0,27,21,27,0,0,0,18,13,13,11,8,23,27,16,26,6,9,6,0,24,32,14,14,14,9,21,3,25,0,0,0,0,0,0,0,0,0,0,0,0,0,0,0,0,0,0,0,0,0,0,0,0,0,0,0,0,0,0,0,0,0,0,0,0,0,0,0,0,0,0,0,0,0,0,0,0,0,0,0,0,0],"split_type":[0,0,0,0,0,0,0,0,0,0,0,0,0,0,0,0,0,0,0,0,0,0,0,0,0,0,0,0,0,0,0,0,0,0,0,0,0,0,0,0,0,0,0,0,0,0,0,0,0,0,0,0,0,0,0,0,0,0,0,0,0,0,0,0,0,0,0,0,0,0,0,0,0,0,0,0,0,0,0,0,0,0,0,0,0,0,0,0,0,0,0,0,0,0,0,0,0,0,0,0,0,0,0,0,0,0,0,0,0,0,0,0,0],"sum_hessian":[7.149324E3,4.382571E3,2.7667534E3,8.453183E2,3.5372524E3,1.1879799E3,1.5787736E3,3.0385367E2,5.414646E2,1.2282566E3,2.3089958E3,1.0231452E3,1.6483461E2,6.788238E2,8.9994977E2,2.671492E1,2.7713873E2,2.0437167E2,3.3709293E2,2.174835E2,1.0107731E3,4.8691254E2,1.8220833E3,7.472848E2,2.7586044E2,9.8185905E1,6.6648705E1,6.729071E2,5.9166946E0,8.050156E2,9.4934135E1,1.3810333E1,1.2904587E1,1.12342445E2,1.647963E2,7.7565923E0,1.9661508E2,1.0018006E1,3.2707492E2,1.4828252E2,6.920098E1,4.6623062E2,5.445424E2,4.5713174E2,2.9780807E1,1.4264083E3,3.9567502E2,6.106911E2,1.3659366E2,1.5460799E2,1.2125246E2,1.6500362E1,8.168555E1,1.6681856E1,4.9966846E1,3.0751974E2,3.6538736E2,1.9222292E1,7.8579333E2,8.80261E1,6.908036E0,7.2670164E0,5.637571E0,3.3449337E1,7.8893105E1,1.4027383E2,2.4522469E1,1.6216803E2,3.444706E1,1.6262967E2,1.6444527E2,4.1273163E1,1.0700936E2,6.1702114E1,7.498866E0,2.7936404E2,1.8686656E2,7.133199E1,4.7321045E2,1.5997047E1,4.4113467E2,5.296455E0,2.4484352E1,1.6617943E2,1.2602289E3,2.62163E2,1.3351202E2,5.6786884E2,4.2822266E1,1.9519176E1,1.1707448E2,1.419988E2,1.2609182E1,1.4402153E1,1.068503E2,8.41196E0,8.088403E0,4.1141064E1,4.0544483E1,5.2490726E0,1.1432783E1,2.7663937E1,2.230291E1,3.0217944E2,5.3403134E0,1.9453387E2,1.7085347E2,1.2096038E1,7.126255E0,7.361377E2,4.965563E1,7.6725136E1,1.1300962E1],"tree_param":{"num_deleted":"0","num_feature":"34","num_nodes":"113","size_leaf_vector":"1"}},{"base_weights":[-9.423439E-5,-4.287317E-1,5.3614604E-1,-2.1743919E-1,-5.7519245E-1,2.2758016E-1,1.0200182E0,-8.772709E-2,-3.587587E-1,-6.8397224E-1,-2.406993E-1,1.0333679E-2,4.3552223E-1,5.275923E-1,1.0448416E0,-6.698316E-2,-1.1895993E0,-1.8989791E-1,-9.524136E-1,2.747454E-1,-7.157614E-1,9.915425E-2,-3.5633737E-1,2.087397E-1,-2.1268521E-1,3.6499432E-1,8.1525284E-1,9.9796855E-1,1.6267022E-2,1.0514246E0,-3.3414427E-3,-2.4094306E-1,5.818956E-2,-7.931627E-2,-1.8010046E-2,-4.1531733E-1,-2.2732766E-2,-1.0114176E0,1.6645947E-2,5.105161E-1,-5.6646323E-1,-2.53758E-1,-7.6156116E-1,1.7458841E-2,6.1674632E-2,-4.0863782E-1,4.0767482E-1,3.080053E-1,-3.5130885E-1,-4.674955E-1,-5.9667107E-2,4.378929E-1,4.8926916E-2,8.649376E-1,-1.24276355E-2,1.5965784E-2,5.9474237E-2,-4.556032E-1,4.9734792E-1,1.0661685E0,6.7475396E-1,-5.5572117E-4,-3.2415137E-2,8.639446E-3,-1.2725988E-2,3.640938E-2,-2.3129884E-2,2.5845496E-2,-4.2702877E-3,-5.302768E-2,-1.5133376E-3,-1.8470027E-3,5.469212E-2,3.463379E-2,-7.663356E-2,-8.122227E-3,-7.23372E-2,-2.7229933E-2,-4.1884933E-2,-3.7814353E-2,8.927933E-3,-7.2471686E-2,-1.8161891E-2,4.338585E-2,-3.5638787E-2,1.6899828E-2,-2.6564216E-2,-9.744225E-3,-8.0447726E-2,-1.8253354E-2,-7.366165E-2,2.0187702E-2,-9.631916E-3,2.514403E-2,7.4236304E-4,-1.2359136E-2,1.9893685E-2,3.356689E-2,5.0458994E-2,-7.5449415E-2,1.6490448E-2,5.9923507E-2,-5.4115206E-3,5.4314245E-2,4.146848E-2,-2.2169342E-2,4.1209556E-2],"categories":[],"categories_nodes":[],"categories_segments":[],"categories_sizes":[],"default_left":[0,0,0,0,0,0,0,0,0,0,0,0,0,0,0,0,0,0,0,0,0,0,0,0,0,0,0,0,0,0,0,0,0,0,0,0,0,0,0,0,0,0,0,0,0,0,0,0,0,0,0,0,0,0,0,0,0,0,0,0,0,0,0,0,0,0,0,0,0,0,0,0,0,0,0,0,0,0,0,0,0,0,0,0,0,0,0,0,0,0,0,0,0,0,0,0,0,0,0,0,0,0,0,0,0,0,0],"id":11,"left_children":[1,3,5,7,9,11,13,15,17,19,21,23,25,27,29,31,33,35,37,39,41,43,45,47,49,51,53,55,57,59,-1,61,63,-1,-1,65,67,69,-1,71,73,75,77,79,-1,81,83,85,87,89,91,93,95,97,-1,-1,-1,99,101,103,105,-1,-1,-1,-1,-1,-1,-1,-1,-1,-1,-1,-1,-1,-1,-1,-1,-1,-1,-1,-1,-1,-1,-1,-1,-1,-1,-1,-1,-1,-1,-1,-1,-1,-1,-1,-1,-1,-1,-1,-1,-1,-1,-1,-1,-1,-1],"loss_changes":[1.6305267E3,1.2180286E2,4.7014722E2,2.9545403E1,8.44364E1,8.6939865E1,1.4285767E1,1.9092161E1,7.7161674E1,5.3747803E1,2.2578896E1,4.1770004E1,2.5927246E1,1.4573416E1,8.705933E0,1.8101507E1,4.31826E0,2.2667057E1,1.3352707E1,1.1582128E1,3.5670166E1,1.3385676E1,1.7266659E1,2.7888308E1,1.7239756E1,1.9090126E1,8.365524E0,3.5889645E0,7.1284757E0,5.5477295E0,0E0,3.248573E1,1.7346422E1,0E0,0E0,1.4173992E1,1.1754444E1,7.7439575E0,0E0,1.4553444E1,1.678181E1,1.648858E1,2.4938843E1,1.7193344E1,0E0,1.8247467E1,1.4961691E1,1.08635025E1,1.4370994E1,1.6407913E1,1.7245333E1,1.8507782E1,1.6359852E1,3.2461624E0,0E0,0E0,0E0,1.3651585E1,6.874506E0,4.214966E0,8.2014885E0,0E0,0E0,0E0,0E0,0E0,0E0,0E0,0E0,0E0,0E0,0E0,0E0,0E0,0E0,0E0,0E0,0E0,0E0,0E0,0E0,0E0,0E0,0E0,0E0,0E0,0E0,0E0,0E0,0E0,0E0,0E0,0E0,0E0,0E0,0E0,0E0,0E0,0E0,0E0,0E0,0E0,0E0,0E0,0E0,0E0,0E0],"parents":[2147483647,0,0,1,1,2,2,3,3,4,4,5,5,6,6,7,7,8,8,9,9,10,10,11,11,12,12,13,13,14,14,15,15,16,16,17,17,18,18,19,19,20,20,21,21,22,22,23,23,24,24,25,25,26,26,27,27,28,28,29,29,31,31,32,32,35,35,36,36,37,37,39,39,40,40,41,41,42,42,43,43,45,45,46,46,47,47,48,48,49,49,50,50,51,51,52,52,53,53,57,57,58,58,59,59,60,60],"right_children":[2,4,6,8,10,12,14,16,18,20,22,24,26,28,30,32,34,36,38,40,42,44,46,48,50,52,54,56,58,60,-1,62,64,-1,-1,66,68,70,-1,72,74,76,78,80,-1,82,84,86,88,90,92,94,96,98,-1,-1,-1,100,102,104,106,-1,-1,-1,-1,-1,-1,-1,-1,-1,-1,-1,-1,-1,-1,-1,-1,-1,-1,-1,-1,-1,-1,-1,-1,-1,-1,-1,-1,-1,-1,-1,-1,-1,-1,-1,-1,-1,-1,-1,-1,-1,-1,-1,-1,-1,-1],"split_conditions":[1E0,2.0261666E3,2E0,1.0693E4,9.077111E-1,2E0,0E0,3.814E3,3.1034482E3,8.571429E2,2.773E3,5.33E2,6E0,1.88E2,1E0,-1E0,2.2238333E3,8.466333E-1,1.3571429E4,5E3,9.9E2,8.2522E4,2.5006666E4,3.6E3,9.094E3,3.6441667E3,7.035E3,5.882353E-3,3.9130435E3,1.0055E4,-3.3414427E-3,3.9E1,5.7142856E3,-7.931627E-2,-1.8010046E-2,0E0,1.318E3,9.763941E-1,1.6645947E-2,2.184E3,6.76E2,4.8537E4,6.091E3,1.47E3,6.1674632E-2,1.367E3,1.401E4,2E0,8.2E3,4.605E3,1.6914E4,5.128205E3,5.3E3,1E0,-1.24276355E-2,1.5965784E-2,5.9474237E-2,1.494E3,5.217391E3,1.01972E0,2.984E4,-5.5572117E-4,-3.2415137E-2,8.639446E-3,-1.2725988E-2,3.640938E-2,-2.3129884E-2,2.5845496E-2,-4.2702877E-3,-5.302768E-2,-1.5133376E-3,-1.8470027E-3,5.469212E-2,3.463379E-2,-7.663356E-2,-8.122227E-3,-7.23372E-2,-2.7229933E-2,-4.1884933E-2,-3.7814353E-2,8.927933E-3,-7.2471686E-2,-1.8161891E-2,4.338585E-2,-3.5638787E-2,1.6899828E-2,-2.6564216E-2,-9.744225E-3,-8.0447726E-2,-1.8253354E-2,-7.366165E-2,2.0187702E-2,-9.631916E-3,2.514403E-2,7.4236304E-4,-1.2359136E-2,1.9893685E-2,3.356689E-2,5.0458994E-2,-7.5449415E-2,1.6490448E-2,5.9923507E-2,-5.4115206E-3,5.4314245E-2,4.146848E-2,-2.2169342E-2,4.1209556E-2],"split_indices":[22,24,2,8,25,22,4,16,27,27,15,16,22,12,31,5,23,25,27,15,8,23,24,15,9,24,15,25,27,18,0,14,27,0,0,2,14,25,0,14,13,12,12,15,0,16,16,7,14,14,9,27,18,28,0,0,0,15,27,25,13,0,0,0,0,0,0,0,0,0,0,0,0,0,0,0,0,0,0,0,0,0,0,0,0,0,0,0,0,0,0,0,0,0,0,0,0,0,0,0,0,0,0,0,0,0,0],"split_type":[0,0,0,0,0,0,0,0,0,0,0,0,0,0,0,0,0,0,0,0,0,0,0,0,0,0,0,0,0,0,0,0,0,0,0,0,0,0,0,0,0,0,0,0,0,0,0,0,0,0,0,0,0,0,0,0,0,0,0,0,0,0,0,0,0,0,0,0,0,0,0,0,0,0,0,0,0,0,0,0,0,0,0,0,0,0,0,0,0,0,0,0,0,0,0,0,0,0,0,0,0,0,0,0,0,0,0],"sum_hessian":[7.091838E3,3.9415737E3,3.1502644E3,1.6149392E3,2.3266343E3,1.9246132E3,1.2256512E3,8.43265E2,7.7167426E2,1.7546613E3,5.719731E2,9.4199695E2,9.826162E2,6.008167E1,1.1655696E3,8.2881323E2,1.4451758E1,6.0194403E2,1.6973024E2,5.5967674E1,1.6986936E3,1.4502646E2,4.269466E2,4.987778E2,4.4321912E2,8.3057654E2,1.5203964E2,3.0696327E1,2.9385342E1,1.1588512E3,6.718326E0,3.4676605E2,4.8204718E2,9.076841E0,5.3749166E0,2.5542497E2,3.4651904E2,1.6255878E2,7.1714506E0,4.4115223E1,1.1852452E1,1.5399524E2,1.5446984E3,1.3631273E2,8.713738E0,4.0015033E2,2.6796267E1,4.242163E2,7.4561485E1,1.6528049E2,2.7793863E2,6.743426E2,1.5623396E2,1.4552393E2,6.5157156E0,7.4579487E0,2.3238379E1,1.4756479E1,1.4628861E1,1.1131824E3,4.566879E1,2.2250404E2,1.24262E2,3.5332904E2,1.2871815E2,9.485902E0,2.4593907E2,3.5136307E1,3.1138275E2,1.5463197E2,7.9268093E0,2.3152071E1,2.0963152E1,5.2241135E0,6.628339E0,1.4417946E2,9.815788E0,4.037194E2,1.140979E3,2.274682E1,1.135659E2,1.5340514E1,3.848098E2,1.9219719E1,7.576548E0,4.1027206E2,1.3944257E1,6.7411415E1,7.150072E0,1.5133075E2,1.3949733E1,6.1347294E1,2.1659134E2,5.8417706E2,9.016555E1,8.451835E1,7.1715614E1,6.484178E1,8.068215E1,5.963867E0,8.792612E0,6.4024076E0,8.226454E0,1.02232513E3,9.085724E1,5.07319E0,4.0595596E1],"tree_param":{"num_deleted":"0","num_feature":"34","num_nodes":"107","size_leaf_vector":"1"}},{"base_weights":[9.468446E-3,-3.6678088E-1,6.171816E-1,1.034074E-1,-4.8869407E-1,3.1923077E-1,9.9207234E-1,2.5282186E-1,-1.3996093E-1,-2.5264806E-1,-5.76788E-1,1.4989674E-1,5.822037E-1,2.4768084E-1,1.0120316E0,2.7307793E-1,-6.2476784E-2,1.0495078E-1,-4.44124E-1,-3.267683E-1,-7.4478127E-3,-3.1441677E-1,-6.670476E-1,2.2772118E-1,-2.4073392E-1,6.8508565E-1,3.5010034E-1,5.044542E-1,-2.1854436E-2,1.0183157E0,-2.6678517E-3,4.266407E-1,1.0420463E-1,1.6939503E-1,-6.660501E-1,-6.1068976E-1,1.9729008E-1,-1.22002766E-1,-5.26073E-1,1.2192539E-1,-4.604648E-1,-2.9738238E-1,-7.36075E-2,-7.787998E-1,-4.1576484E-1,6.729952E-1,1.7250809E-1,1.8450022E-1,-6.854864E-1,7.193207E-1,-2.8322423E-1,5.076182E-1,4.9009014E-2,5.295527E-2,1.6734251E-1,7.5845385E-1,1.0324928E0,1.1333881E-2,2.8388454E-2,-2.9954247E-3,2.1779561E-2,2.2182629E-2,-1.3580302E-3,1.7248733E-2,-8.603959E-2,-1.7207861E-2,-7.7608354E-2,2.386005E-2,-2.3969268E-2,-8.396938E-3,4.8400097E-2,-9.534667E-3,-3.694989E-2,-5.602254E-4,3.68046E-2,-2.5229193E-3,-5.043305E-2,-1.4038727E-2,-7.149083E-2,-2.37398E-2,-4.2009756E-2,4.7508636E-3,-2.5331823E-2,3.7696876E-2,-1.50412815E-2,1.0311257E-2,-2.1225926E-2,-1.4976944E-2,3.798304E-2,-2.2971952E-2,-7.368554E-2,6.813553E-2,3.464952E-2,2.3794003E-2,-7.0043616E-2,-1.2206823E-2,2.9511228E-2,-3.0725786E-2,1.988107E-2,-2.1372948E-2,4.5186214E-2,4.4980817E-2,-2.6655806E-2,5.7901364E-2,4.9556024E-2],"categories":[],"categories_nodes":[],"categories_segments":[],"categories_sizes":[],"default_left":[0,0,0,0,0,0,0,0,0,0,0,0,0,0,0,0,0,0,0,0,0,0,0,0,0,0,0,0,0,0,0,0,0,0,0,0,0,0,0,0,0,0,0,0,0,0,0,0,0,0,0,0,0,0,0,0,0,0,0,0,0,0,0,0,0,0,0,0,0,0,0,0,0,0,0,0,0,0,0,0,0,0,0,0,0,0,0,0,0,0,0,0,0,0,0,0,0,0,0,0,0,0,0,0,0],"id":12,"left_children":[1,3,5,7,9,11,13,15,17,19,21,23,25,27,29,31,-1,33,35,37,39,41,43,45,47,49,51,53,-1,55,-1,57,59,61,63,65,67,69,71,73,75,77,-1,79,81,83,85,87,89,91,93,95,97,-1,99,101,103,-1,-1,-1,-1,-1,-1,-1,-1,-1,-1,-1,-1,-1,-1,-1,-1,-1,-1,-1,-1,-1,-1,-1,-1,-1,-1,-1,-1,-1,-1,-1,-1,-1,-1,-1,-1,-1,-1,-1,-1,-1,-1,-1,-1,-1,-1,-1,-1],"loss_changes":[1.6253759E3,2.5174475E2,3.0317505E2,3.2940228E1,7.227258E1,6.7354095E1,1.7497925E1,1.7318851E1,2.5743156E1,1.7223713E1,5.9794373E1,2.8139269E1,1.3824081E1,6.006812E0,7.9920654E0,1.4282635E1,0E0,9.576283E0,1.661846E1,2.9617798E1,1.3087688E1,1.2239311E1,5.2550537E1,1.8756863E1,2.9254864E1,1.38302E1,8.672581E0,4.2767067E0,0E0,3.3278809E0,0E0,7.969921E0,1.45152445E1,9.62813E0,1.6568975E1,3.0052711E1,6.3627987E0,1.8161613E1,2.610411E1,1.4236234E1,1.100182E1,1.1533257E1,0E0,2.382312E1,2.7165245E1,6.934452E0,1.3906675E1,2.2343462E1,1.2578079E1,5.5607452E0,1.3154037E1,7.683073E0,1.5192098E1,0E0,7.6712065E0,1.2253342E1,4.356079E0,0E0,0E0,0E0,0E0,0E0,0E0,0E0,0E0,0E0,0E0,0E0,0E0,0E0,0E0,0E0,0E0,0E0,0E0,0E0,0E0,0E0,0E0,0E0,0E0,0E0,0E0,0E0,0E0,0E0,0E0,0E0,0E0,0E0,0E0,0E0,0E0,0E0,0E0,0E0,0E0,0E0,0E0,0E0,0E0,0E0,0E0,0E0,0E0],"parents":[2147483647,0,0,1,1,2,2,3,3,4,4,5,5,6,6,7,7,8,8,9,9,10,10,11,11,12,12,13,13,14,14,15,15,17,17,18,18,19,19,20,20,21,21,22,22,23,23,24,24,25,25,26,26,27,27,29,29,31,31,32,32,33,33,34,34,35,35,36,36,37,37,38,38,39,39,40,40,41,41,43,43,44,44,45,45,46,46,47,47,48,48,49,49,50,50,51,51,52,52,54,54,55,55,56,56],"right_children":[2,4,6,8,10,12,14,16,18,20,22,24,26,28,30,32,-1,34,36,38,40,42,44,46,48,50,52,54,-1,56,-1,58,60,62,64,66,68,70,72,74,76,78,-1,80,82,84,86,88,90,92,94,96,98,-1,100,102,104,-1,-1,-1,-1,-1,-1,-1,-1,-1,-1,-1,-1,-1,-1,-1,-1,-1,-1,-1,-1,-1,-1,-1,-1,-1,-1,-1,-1,-1,-1,-1,-1,-1,-1,-1,-1,-1,-1,-1,-1,-1,-1,-1,-1,-1,-1,-1,-1],"split_conditions":[2E0,7.528333E2,2E0,4.94E2,8E4,3E0,5.5E2,1E0,3.75E3,4.8293E4,3.7E3,6.153846E3,2.9032258E3,8.203333E2,1E0,5.3833332E1,-6.2476784E-2,5E-1,3.2E5,5E4,2.773E3,1E0,1.17705E5,5.714286E2,8.26E3,4E3,3.314E3,1.0416666E3,-2.1854436E-2,2.268E3,-2.6678517E-3,2E5,3.23E2,7.065E3,6E0,2.4E5,3.371E3,7.1308335E3,1.529E3,2.5E3,2.54E3,6.918E4,-7.36075E-2,1.004E3,2.009E3,2.1243333E3,7.6293335E3,1.393E3,3.7E5,0E0,1.6216216E3,3.9E2,7.8255836E4,5.295527E-2,4.16E2,1.305E3,1.8768E4,1.1333881E-2,2.8388454E-2,-2.9954247E-3,2.1779561E-2,2.2182629E-2,-1.3580302E-3,1.7248733E-2,-8.603959E-2,-1.7207861E-2,-7.7608354E-2,2.386005E-2,-2.3969268E-2,-8.396938E-3,4.8400097E-2,-9.534667E-3,-3.694989E-2,-5.602254E-4,3.68046E-2,-2.5229193E-3,-5.043305E-2,-1.4038727E-2,-7.149083E-2,-2.37398E-2,-4.2009756E-2,4.7508636E-3,-2.5331823E-2,3.7696876E-2,-1.50412815E-2,1.0311257E-2,-2.1225926E-2,-1.4976944E-2,3.798304E-2,-2.2971952E-2,-7.368554E-2,6.813553E-2,3.464952E-2,2.3794003E-2,-7.0043616E-2,-1.2206823E-2,2.9511228E-2,-3.0725786E-2,1.988107E-2,-2.1372948E-2,4.5186214E-2,4.4980817E-2,-2.6655806E-2,5.7901364E-2,4.9556024E-2],"split_indices":[21,24,2,8,0,22,8,31,27,9,9,27,27,23,31,24,0,26,0,0,15,31,8,27,8,24,15,27,0,9,0,0,8,8,16,0,8,24,15,15,16,17,0,16,19,24,24,18,0,4,27,24,23,0,9,16,8,0,0,0,0,0,0,0,0,0,0,0,0,0,0,0,0,0,0,0,0,0,0,0,0,0,0,0,0,0,0,0,0,0,0,0,0,0,0,0,0,0,0,0,0,0,0,0,0],"split_type":[0,0,0,0,0,0,0,0,0,0,0,0,0,0,0,0,0,0,0,0,0,0,0,0,0,0,0,0,0,0,0,0,0,0,0,0,0,0,0,0,0,0,0,0,0,0,0,0,0,0,0,0,0,0,0,0,0,0,0,0,0,0,0,0,0,0,0,0,0,0,0,0,0,0,0,0,0,0,0,0,0,0,0,0,0,0,0,0,0,0,0,0,0,0,0,0,0,0,0,0,0,0,0,0,0],"sum_hessian":[7.1064243E3,4.3892E3,2.7172239E3,9.03595E2,3.4856052E3,1.5151505E3,1.2020734E3,5.600982E2,3.4349673E2,9.486688E2,2.5369365E3,9.2285455E2,5.9229596E2,3.187019E1,1.1702032E3,5.5351996E2,6.5782413E0,1.9046265E2,1.5303407E2,7.278965E2,2.2077235E2,6.50787E2,1.8861494E3,7.701019E2,1.527526E2,4.0873703E2,1.8355893E2,2.3476414E1,8.393776E0,1.1634786E3,6.724648E0,2.8879208E2,2.6472787E2,1.7661061E2,1.3852037E1,1.21647766E2,3.1386312E1,3.6007227E2,3.6782422E2,1.7212639E2,4.864597E1,6.426742E2,8.1127825E0,1.3038121E3,5.823373E2,8.3522484E1,6.8657947E2,7.827401E1,7.447858E1,3.951275E2,1.3609528E1,1.1984382E2,6.3715115E1,7.952988E0,1.5523425E1,6.3375896E1,1.1001027E3,1.2086073E2,1.6793135E2,1.7739415E2,8.733374E1,7.3419174E1,1.0319144E2,7.3677683E0,6.484269E0,9.595472E1,2.5693045E1,2.2515293E1,8.87102E0,3.4641116E2,1.3661114E1,1.4375687E2,2.2406734E2,1.4213535E2,2.9991049E1,2.855992E1,2.0086048E1,6.3470215E2,7.9720535E0,2.2081108E2,1.0830011E3,8.778102E1,4.9455627E2,7.741627E1,6.106222E0,6.5065576E2,3.5923683E1,4.2669716E1,3.5604298E1,5.9208485E1,1.5270092E1,1.3389825E1,3.8173767E2,8.393452E0,5.216076E0,1.1551755E1,1.0829206E2,2.1584007E1,4.2131107E1,8.744168E0,6.7792573E0,5.7475044E1,5.900852E0,2.6540057E2,8.347021E2],"tree_param":{"num_deleted":"0","num_feature":"34","num_nodes":"105","size_leaf_vector":"1"}},{"base_weights":[1.0825523E-2,-3.899272E-1,5.135223E-1,-1.6972508E-1,-5.2290606E-1,2.60285E-1,7.825594E-1,-1.0732549E-1,-5.4876417E-1,-6.789986E-1,-3.0613023E-1,-4.4178158E-1,2.9216996E-1,4.9195692E-1,8.6468166E-1,2.6087815E-1,-1.4711338E-1,-6.6201663E-1,4.0047128E-2,-2.9456487E-1,-8.0318123E-1,-3.6878157E-1,6.689135E-2,5.867278E-1,-6.7234254E-1,2.3832442E-1,6.1083925E-1,5.2198464E-1,-4.5576327E-2,7.6959276E-1,1.0280252E0,-8.558745E-1,4.022183E-1,-4.5166593E-2,-4.4725403E-1,-3.2467392E-1,-8.4999496E-1,3.680225E-1,-4.3405786E-2,-5.217209E-1,5.2304536E-2,-0E0,-8.2694364E-1,-2.4055384E-1,-5.156104E-1,-3.0691817E-1,5.504118E-1,3.631213E-3,4.8460033E-2,5.5214338E-2,-8.6044884E-1,4.6539068E-1,1.4812513E-1,7.139416E-1,2.4887708E-1,5.582641E-1,-3.0651772E-2,9.12027E-1,7.201758E-1,1.074268E0,6.4670783E-1,-9.9828895E-3,-6.740065E-2,3.5162773E-3,3.779516E-2,-3.9138436E-2,-9.46213E-4,-1.6819881E-2,-5.2636396E-2,-4.4776265E-2,5.1749577E-3,-8.088705E-2,-3.1031702E-2,4.5390993E-2,-2.1272521E-2,-3.1560045E-2,1.1814805E-2,-9.418256E-3,2.378301E-2,3.4195796E-2,-2.6811523E-2,-2.3788502E-2,-4.3389007E-2,-2.1888204E-2,2.6221477E-4,-1.1662526E-2,-3.711083E-2,-2.7765367E-2,5.987821E-2,4.2133845E-2,-6.183238E-2,-3.2880716E-2,3.2256085E-2,-2.3859981E-2,-6.8511516E-2,2.063317E-2,5.8449216E-2,-8.912689E-3,1.0371721E-2,4.1153174E-2,1.6600408E-2,3.6840325E-3,5.6507368E-2,3.503866E-2,1.5195945E-2,4.7002107E-2,2.074803E-3,2.4179086E-2,4.0293295E-2,5.5955674E-2,3.2399457E-2,1.8943151E-3,4.4449728E-2],"categories":[],"categories_nodes":[],"categories_segments":[],"categories_sizes":[],"default_left":[0,0,0,0,0,0,0,0,0,0,0,0,0,0,0,0,0,0,0,0,0,0,0,0,0,0,0,0,0,0,0,0,0,0,0,0,0,0,0,0,0,0,0,0,0,0,0,0,0,0,0,0,0,0,0,0,0,0,0,0,0,0,0,0,0,0,0,0,0,0,0,0,0,0,0,0,0,0,0,0,0,0,0,0,0,0,0,0,0,0,0,0,0,0,0,0,0,0,0,0,0,0,0,0,0,0,0,0,0,0,0,0,0],"id":13,"left_children":[1,3,5,7,9,11,13,15,17,19,21,23,25,27,29,31,33,35,37,39,41,43,45,47,49,51,53,55,-1,57,59,61,63,65,67,69,71,73,-1,75,77,79,81,83,85,87,89,-1,-1,91,93,95,97,99,101,103,-1,105,107,109,111,-1,-1,-1,-1,-1,-1,-1,-1,-1,-1,-1,-1,-1,-1,-1,-1,-1,-1,-1,-1,-1,-1,-1,-1,-1,-1,-1,-1,-1,-1,-1,-1,-1,-1,-1,-1,-1,-1,-1,-1,-1,-1,-1,-1,-1,-1,-1,-1,-1,-1,-1,-1],"loss_changes":[1.4218208E3,1.14830505E2,2.1298907E2,3.4887653E1,8.251294E1,3.6253212E1,3.5649597E1,1.8669651E1,1.4011055E1,6.7533936E1,2.4049507E1,1.7096415E1,2.6280243E1,1.463488E1,1.737915E1,1.9905151E1,3.5097794E1,1.0722908E1,1.0539389E1,2.7568247E1,2.0486206E1,1.6358269E1,2.6990889E1,2.4495745E0,8.072744E0,2.6978546E1,8.026451E0,1.3947975E1,0E0,4.466614E0,6.7389526E0,4.1603823E0,1.2896284E1,1.6537506E1,1.9041836E1,1.594623E1,1.8452637E1,1.1619705E1,0E0,1.7708988E1,1.4262327E1,1.2054662E1,1.4411011E1,2.291079E1,2.5883102E1,3.204477E1,3.5014214E1,0E0,0E0,5.78691E0,8.206158E0,1.3290649E1,1.8411446E1,6.794655E0,7.6796E0,1.1318687E1,0E0,4.4767914E0,1.0893402E1,6.4185486E0,7.160202E0,0E0,0E0,0E0,0E0,0E0,0E0,0E0,0E0,0E0,0E0,0E0,0E0,0E0,0E0,0E0,0E0,0E0,0E0,0E0,0E0,0E0,0E0,0E0,0E0,0E0,0E0,0E0,0E0,0E0,0E0,0E0,0E0,0E0,0E0,0E0,0E0,0E0,0E0,0E0,0E0,0E0,0E0,0E0,0E0,0E0,0E0,0E0,0E0,0E0,0E0,0E0,0E0],"parents":[2147483647,0,0,1,1,2,2,3,3,4,4,5,5,6,6,7,7,8,8,9,9,10,10,11,11,12,12,13,13,14,14,15,15,16,16,17,17,18,18,19,19,20,20,21,21,22,22,23,23,24,24,25,25,26,26,27,27,29,29,30,30,31,31,32,32,33,33,34,34,35,35,36,36,37,37,39,39,40,40,41,41,42,42,43,43,44,44,45,45,46,46,49,49,50,50,51,51,52,52,53,53,54,54,55,55,57,57,58,58,59,59,60,60],"right_children":[2,4,6,8,10,12,14,16,18,20,22,24,26,28,30,32,34,36,38,40,42,44,46,48,50,52,54,56,-1,58,60,62,64,66,68,70,72,74,-1,76,78,80,82,84,86,88,90,-1,-1,92,94,96,98,100,102,104,-1,106,108,110,112,-1,-1,-1,-1,-1,-1,-1,-1,-1,-1,-1,-1,-1,-1,-1,-1,-1,-1,-1,-1,-1,-1,-1,-1,-1,-1,-1,-1,-1,-1,-1,-1,-1,-1,-1,-1,-1,-1,-1,-1,-1,-1,-1,-1,-1,-1,-1,-1,-1,-1,-1,-1],"split_conditions":[1E0,1.64E3,6.666667E-1,2.2E3,6.679619E-1,-3.5E-5,2E0,5.7E1,6.3984E-1,3.7E3,1.0147429E0,-4.4E1,9.6064E-1,1.6709E4,2E0,2.8E1,5.7142856E3,7.76E2,2.6E3,6.765545E-1,1E3,4.374836E-2,4E1,3.4E1,2.0689656E3,4.9416666E2,4.8324354E-2,5.4E1,-4.5576327E-2,5.4E1,4E0,9E4,2.5E5,1.0533333E-3,2.222E3,3.9E2,4.2105264E3,5.005E3,-4.3405786E-2,4.2E5,3E3,2.7552173E-1,2.74E2,1E0,5.3214E4,1.878E4,1.3248333E0,3.631213E-3,4.8460033E-2,2.659E3,2.5968333E3,5.6E1,2E0,1.02872E5,8.028E3,1.686E3,-3.0651772E-2,3E0,1E0,4.019E3,1E1,-9.9828895E-3,-6.740065E-2,3.5162773E-3,3.779516E-2,-3.9138436E-2,-9.46213E-4,-1.6819881E-2,-5.2636396E-2,-4.4776265E-2,5.1749577E-3,-8.088705E-2,-3.1031702E-2,4.5390993E-2,-2.1272521E-2,-3.1560045E-2,1.1814805E-2,-9.418256E-3,2.378301E-2,3.4195796E-2,-2.6811523E-2,-2.3788502E-2,-4.3389007E-2,-2.1888204E-2,2.6221477E-4,-1.1662526E-2,-3.711083E-2,-2.7765367E-2,5.987821E-2,4.2133845E-2,-6.183238E-2,-3.2880716E-2,3.2256085E-2,-2.3859981E-2,-6.8511516E-2,2.063317E-2,5.8449216E-2,-8.912689E-3,1.0371721E-2,4.1153174E-2,1.6600408E-2,3.6840325E-3,5.6507368E-2,3.503866E-2,1.5195945E-2,4.7002107E-2,2.074803E-3,2.4179086E-2,4.0293295E-2,5.5955674E-2,3.2399457E-2,1.8943151E-3,4.4449728E-2],"split_indices":[21,15,20,17,25,25,3,23,25,9,25,13,25,14,20,1,27,19,19,26,27,26,1,1,27,24,26,1,0,19,3,0,0,25,12,10,27,17,0,0,17,25,17,28,9,19,25,0,0,10,23,1,21,10,17,17,0,4,20,19,19,0,0,0,0,0,0,0,0,0,0,0,0,0,0,0,0,0,0,0,0,0,0,0,0,0,0,0,0,0,0,0,0,0,0,0,0,0,0,0,0,0,0,0,0,0,0,0,0,0,0,0,0],"split_type":[0,0,0,0,0,0,0,0,0,0,0,0,0,0,0,0,0,0,0,0,0,0,0,0,0,0,0,0,0,0,0,0,0,0,0,0,0,0,0,0,0,0,0,0,0,0,0,0,0,0,0,0,0,0,0,0,0,0,0,0,0,0,0,0,0,0,0,0,0,0,0,0,0,0,0,0,0,0,0,0,0,0,0,0,0,0,0,0,0,0,0,0,0,0,0,0,0,0,0,0,0,0,0,0,0,0,0,0,0,0,0,0,0],"sum_hessian":[7.05563E3,3.9259028E3,3.1297268E3,1.4793115E3,2.4465913E3,1.6134086E3,1.5163182E3,1.2715316E3,2.0777986E2,1.4208757E3,1.0257157E3,6.9396324E1,1.5440122E3,3.3589813E2,1.1804202E3,1.2321451E2,1.1483171E3,1.743003E2,3.3479565E1,3.479377E2,1.072938E3,8.7845337E2,1.4726231E2,1.23455515E1,5.7050774E1,1.3225951E3,2.2141711E2,3.2954678E2,6.3513656E0,7.500872E2,4.303329E2,1.3195073E1,1.1001943E2,8.5827594E2,2.9004123E2,6.3537014E1,1.1076328E2,2.5114534E1,8.365029E0,2.1011978E2,1.3781793E2,3.0875206E1,1.0420627E3,4.70702E2,4.077514E2,8.314295E1,6.411936E1,5.885651E0,6.4599004E0,1.175596E1,4.5294815E1,3.7451892E2,9.480762E2,1.7135825E2,5.005886E1,3.199173E2,9.629485E0,1.8818958E2,5.6189764E2,3.8193555E2,4.8397335E1,6.344378E0,6.850695E0,5.7522617E1,5.249682E1,2.8365244E1,8.299107E2,2.4661006E2,4.343116E1,2.6863695E1,3.667332E1,2.3985777E1,8.6777504E1,1.4935723E1,1.0178811E1,1.8386366E2,2.6256117E1,8.8070435E1,4.974751E1,1.34375925E1,1.7437613E1,1.1012683E2,9.319359E2,2.6095602E2,2.0974597E2,1.8264256E2,2.2510884E2,7.19598E1,1.1183155E1,5.5609165E1,8.5102E0,5.194621E0,6.561339E0,2.707347E1,1.8221344E1,3.5001727E2,2.450164E1,1.4522298E2,8.028532E2,1.321772E2,3.9181057E1,4.2756042E1,7.3028173E0,2.0365906E2,1.16258224E2,1.821335E2,6.0560803E0,1.5147603E2,4.1042163E2,3.438969E2,3.803865E1,1.42240505E1,3.4173286E1],"tree_param":{"num_deleted":"0","num_feature":"34","num_nodes":"113","size_leaf_vector":"1"}},{"base_weights":[3.9331843E-3,-3.37265E-1,5.586223E-1,6.487919E-2,-4.4294912E-1,2.676405E-1,9.2930585E-1,4.432758E-2,7.024688E-2,-1.927136E-1,-5.578706E-1,1.6203482E-1,5.980348E-1,4.3378478E-1,9.497173E-1,2.4734344E-1,-6.545443E-2,-2.9341474E-2,-3.3314836E-1,-6.117438E-1,-2.7419066E-2,1.9529657E-1,-6.332037E-1,6.621837E-1,2.1517335E-1,6.176056E-1,-1.5455569E-2,9.5526224E-1,5.284445E-3,2.8318176E-1,-6.959351E-1,-1.1942844E-1,7.023514E-1,2.060276E-3,-1.1332307E0,-3.5680985E-1,8.87418E-1,-4.022081E-1,-6.7662215E-1,-6.9844E-1,6.8615936E-2,3.0635995E-1,-6.735853E-3,-9.2148674E-1,2.0547566E-1,5.432951E-1,8.003682E-1,-2.0164284E-1,9.0118587E-1,-1.673244E-2,8.14043E-1,1.0376348E0,8.918071E-1,1.5558302E-2,-3.235785E-2,-7.376217E-2,1.2883395E-2,-5.3652044E-2,-4.4449023E-3,5.684615E-2,2.566457E-3,3.6431633E-2,-1.9445034E-3,-7.845771E-2,-1.5123633E-2,-4.195729E-2,-1.4402178E-2,6.726324E-2,1.3870187E-2,-2.6711432E-2,-4.9334266E-3,-2.9199723E-2,-4.220526E-2,1.1564482E-2,-7.0707634E-2,3.3480883E-2,-4.5965775E-3,2.3862273E-2,8.345562E-3,1.8738738E-3,-5.4070134E-2,-1.973792E-2,-9.079454E-2,-4.1367155E-2,5.357225E-2,2.9080203E-2,-2.6379628E-2,4.4092014E-2,1.3276882E-2,1.1191011E-2,-6.942164E-2,5.5536427E-2,2.0682601E-2,1.5859073E-2,5.2512582E-2,5.244227E-2,1.1299149E-2,6.934465E-3,4.5158744E-2],"categories":[],"categories_nodes":[],"categories_segments":[],"categories_sizes":[],"default_left":[0,0,0,0,0,0,0,0,0,0,0,0,0,0,0,0,0,0,0,0,0,0,0,0,0,0,0,0,0,0,0,0,0,0,0,0,0,0,0,0,0,0,0,0,0,0,0,0,0,0,0,0,0,0,0,0,0,0,0,0,0,0,0,0,0,0,0,0,0,0,0,0,0,0,0,0,0,0,0,0,0,0,0,0,0,0,0,0,0,0,0,0,0,0,0,0,0,0,0],"id":14,"left_children":[1,3,5,7,9,11,13,15,-1,17,19,21,23,25,27,29,31,33,35,37,39,41,43,45,47,49,-1,51,-1,53,55,57,59,61,63,65,67,69,71,73,75,77,79,81,83,85,87,89,91,-1,93,95,97,-1,-1,-1,-1,-1,-1,-1,-1,-1,-1,-1,-1,-1,-1,-1,-1,-1,-1,-1,-1,-1,-1,-1,-1,-1,-1,-1,-1,-1,-1,-1,-1,-1,-1,-1,-1,-1,-1,-1,-1,-1,-1,-1,-1,-1,-1],"loss_changes":[1.3259946E3,1.8442172E2,2.874499E2,2.467283E1,9.860913E1,5.2040924E1,1.1313171E1,1.9889486E1,0E0,2.480059E1,6.7172E1,3.0117617E1,8.657242E0,6.836464E0,5.060364E0,1.0743471E1,2.4006575E1,1.7517735E1,1.707022E1,2.8660034E1,1.4171588E1,2.45099E1,1.131156E1,4.5110016E0,1.5588131E1,7.666436E0,0E0,4.7249146E0,0E0,8.044426E0,9.160192E0,1.55578E1,1.0582203E1,1.4648233E1,4.399498E0,1.8606857E1,2.613061E0,2.023639E1,2.4640503E1,1.8769325E1,1.861204E1,1.6638405E1,1.8562881E1,1.5214075E1,1.20198345E1,7.275051E0,5.773514E0,1.7640491E1,1.4869652E0,0E0,3.395382E0,3.999817E0,5.2434387E0,0E0,0E0,0E0,0E0,0E0,0E0,0E0,0E0,0E0,0E0,0E0,0E0,0E0,0E0,0E0,0E0,0E0,0E0,0E0,0E0,0E0,0E0,0E0,0E0,0E0,0E0,0E0,0E0,0E0,0E0,0E0,0E0,0E0,0E0,0E0,0E0,0E0,0E0,0E0,0E0,0E0,0E0,0E0,0E0,0E0,0E0],"parents":[2147483647,0,0,1,1,2,2,3,3,4,4,5,5,6,6,7,7,9,9,10,10,11,11,12,12,13,13,14,14,15,15,16,16,17,17,18,18,19,19,20,20,21,21,22,22,23,23,24,24,25,25,27,27,29,29,30,30,31,31,32,32,33,33,34,34,35,35,36,36,37,37,38,38,39,39,40,40,41,41,42,42,43,43,44,44,45,45,